{"learner":{"attributes":{"scikit_learn":"{\"_estimator_type\": \"classifier\"}"},"feature_names":["open","high","low","close","volume","trades","high_low_range","close_open_diff"],"feature_types":["float","float","float","float","float","int","float","float"],"gradient_booster":{"model":{"cats":{"enc":[],"feature_segments":[],"sorted_idx":[]},"gbtree_model_param":{"num_parallel_tree":"1","num_trees":"100"},"iteration_indptr":[0,1,2,3,4,5,6,7,8,9,10,11,12,13,14,15,16,17,18,19,20,21,22,23,24,25,26,27,28,29,30,31,32,33,34,35,36,37,38,39,40,41,42,43,44,45,46,47,48,49,50,51,52,53,54,55,56,57,58,59,60,61,62,63,64,65,66,67,68,69,70,71,72,73,74,75,76,77,78,79,80,81,82,83,84,85,86,87,88,89,90,91,92,93,94,95,96,97,98,99,100],"tree_info":[0,0,0,0,0,0,0,0,0,0,0,0,0,0,0,0,0,0,0,0,0,0,0,0,0,0,0,0,0,0,0,0,0,0,0,0,0,0,0,0,0,0,0,0,0,0,0,0,0,0,0,0,0,0,0,0,0,0,0,0,0,0,0,0,0,0,0,0,0,0,0,0,0,0,0,0,0,0,0,0,0,0,0,0,0,0,0,0,0,0,0,0,0,0,0,0,0,0,0,0],"trees":[{"base_weights":[-0E0,-1.1380711E0,1.2483296E0,-1.6983778E0,-3.6680698E-1,-2.9426435E-1,1.4403756E0,-1.8701298E0,-1.1945854E0,-1.0876452E0,5.833333E-1,-7.4433655E-1,1.1666666E0,-1.2432432E0,1.4699557E0,-1.9121951E0,-5.5172414E-1,-1.8187702E0,-5.034965E-1,-1.79375E0,3.7942123E-1,2.098501E-1,1.2529182E0,-1.3063583E0,-2.8571429E-2,1.45E0,-2E-1,6.666667E-2,-1.5E0,1.1722099E0,1.6889133E0,-1.9449902E0,-1.4188035E0,-5.314286E-1,1.1111112E0,-5.896104E-1,-1.3170732E0,-1.1879699E0,8.9171976E-2,-1.8774775E0,-1.1910112E0,-8.6178863E-1,1.1666666E0,4.3950617E-1,-1.2121212E0,9.55414E-1,1.6538461E0,-1.6033058E0,-5.714286E-1,-4.0707964E-1,1.3548387E0,4.347826E-1,1.7377049E0,-4.0000004E-1,3E-1,-5.1428574E-1,-0E0,9.16388E-1,1.3675889E0,-3E-1,1.6970702E0,-5.8501977E-1,-6.666667E-2,-5.641791E-1,-2.2222222E-1,4.909091E-1,-2.0000002E-1,-5.4418606E-1,-2.0930232E-1,-3.92126E-1,2.4000001E-1,-4.666667E-1,8.811189E-2,-5.784E-1,-3.9661017E-1,-5.4418606E-1,-1.6800001E-1,-5.466667E-1,-8.7804876E-2,-1.20000005E-1,4.1052634E-1,-4.357542E-2,2.6608697E-1,-5.217391E-1,-0E0,-3E-1,3.0980396E-1,-0E0,5.1600003E-1,-2.5E-1,-5.168317E-1,-5E-1,3.5E-1,-3.3157894E-1,2.7804878E-1,4.666667E-1,-0E0,-1.0000001E-1,2.8E-1,5.368421E-1,1.5E-1,-4.1538465E-1,2.8828526E-1,4.1908717E-1,2.1000001E-1,4.6068114E-1,5.3419024E-1],"categories":[],"categories_nodes":[],"categories_segments":[],"categories_sizes":[],"default_left":[0,0,0,0,0,0,0,0,0,0,0,0,0,0,0,0,0,0,0,0,0,0,0,0,0,0,0,0,0,0,0,0,0,0,0,0,0,0,0,0,0,0,0,0,0,0,0,0,0,0,0,0,0,0,0,0,0,0,0,0,0,0,0,0,0,0,0,0,0,0,0,0,0,0,0,0,0,0,0,0,0,0,0,0,0,0,0,0,0,0,0,0,0,0,0,0,0,0,0,0,0,0,0,0,0,0,0],"id":0,"left_children":[1,3,5,7,9,11,13,15,17,19,21,23,25,27,29,31,33,35,37,39,41,43,45,47,49,51,53,-1,55,57,59,61,63,-1,65,-1,67,69,71,73,75,77,79,81,83,85,87,89,91,93,95,97,99,-1,-1,-1,-1,101,103,-1,105,-1,-1,-1,-1,-1,-1,-1,-1,-1,-1,-1,-1,-1,-1,-1,-1,-1,-1,-1,-1,-1,-1,-1,-1,-1,-1,-1,-1,-1,-1,-1,-1,-1,-1,-1,-1,-1,-1,-1,-1,-1,-1,-1,-1,-1,-1],"loss_changes":[2.6751553E3,4.2503943E2,2.6645532E2,4.7108154E1,2.8538055E2,6.678522E1,6.523364E1,2.2432007E1,6.2818756E1,2.4593057E2,4.475125E1,3.1038467E1,9.583332E0,3.8138132E0,4.955591E1,3.8745117E0,3.1376684E1,3.0930328E0,2.9111042E1,5.838379E0,7.6977806E1,3.8659122E1,6.0834885E0,8.522507E0,1.887865E1,5.086136E0,8.133334E0,0E0,2.5714283E0,1.565329E1,1.1638184E1,2.904663E0,7.765877E0,0E0,7.39394E0,0E0,5.0436783E0,8.919281E0,1.3660703E1,1.3447876E0,7.7302933E0,1.6274254E1,1.5719299E1,2.6620892E1,1.0540184E1,6.962822E0,2.8446121E0,1.3469315E0,2.859524E1,2.7333988E1,2.1075277E0,2.5130434E0,8.2401276E-2,0E0,0E0,0E0,0E0,1.6660156E1,2.7423096E0,0E0,3.3677979E0,0E0,0E0,0E0,0E0,0E0,0E0,0E0,0E0,0E0,0E0,0E0,0E0,0E0,0E0,0E0,0E0,0E0,0E0,0E0,0E0,0E0,0E0,0E0,0E0,0E0,0E0,0E0,0E0,0E0,0E0,0E0,0E0,0E0,0E0,0E0,0E0,0E0,0E0,0E0,0E0,0E0,0E0,0E0,0E0,0E0,0E0],"parents":[2147483647,0,0,1,1,2,2,3,3,4,4,5,5,6,6,7,7,8,8,9,9,10,10,11,11,12,12,13,13,14,14,15,15,16,16,17,17,18,18,19,19,20,20,21,21,22,22,23,23,24,24,25,25,26,26,28,28,29,29,30,30,31,31,32,32,34,34,36,36,37,37,38,38,39,39,40,40,41,41,42,42,43,43,44,44,45,45,46,46,47,47,48,48,49,49,50,50,51,51,52,52,57,57,58,58,60,60],"right_children":[2,4,6,8,10,12,14,16,18,20,22,24,26,28,30,32,34,36,38,40,42,44,46,48,50,52,54,-1,56,58,60,62,64,-1,66,-1,68,70,72,74,76,78,80,82,84,86,88,90,92,94,96,98,100,-1,-1,-1,-1,102,104,-1,106,-1,-1,-1,-1,-1,-1,-1,-1,-1,-1,-1,-1,-1,-1,-1,-1,-1,-1,-1,-1,-1,-1,-1,-1,-1,-1,-1,-1,-1,-1,-1,-1,-1,-1,-1,-1,-1,-1,-1,-1,-1,-1,-1,-1,-1,-1],"split_conditions":[2.2373924E-2,5.577129E-2,5.7009883E-2,4.400405E-2,-1.3450359E-2,4.751092E6,1.68991E5,5.263893E6,-2.4564276E-3,1.2020143E-1,9.2298634E-2,4.9760193E-2,5.878911E6,7.19E-6,9.6248135E-2,3.902263E6,1.4545455E-2,-1.1411987E-2,2.2882717E0,-1.9534813E-2,-6.9360465E-2,3.419393E6,1.1777302E-2,2.832E4,1.6000541E12,5.306245E6,4.4517836E4,6.666667E-2,7.3423866E12,4.5182012E-2,6.58E-6,4.2351987E12,3.5531916E-2,-5.314286E-1,5.422528E6,-5.896104E-1,1.526611E6,4.926628E12,3.7920668E4,4.560133E3,7.180722E-2,1.8925463E9,1.352007E6,1.236411E6,4.017018E3,1.1071312E-5,9.687389E-6,1.2971801E-5,4.4517836E4,4.34803E3,1.327E-5,4.8320755E-2,5.1327734E5,-4.0000004E-1,3E-1,-5.1428574E-1,-0E0,7.19E-6,9.4137296E-2,-3E-1,1.6366008E9,-5.8501977E-1,-6.666667E-2,-5.641791E-1,-2.2222222E-1,4.909091E-1,-2.0000002E-1,-5.4418606E-1,-2.0930232E-1,-3.92126E-1,2.4000001E-1,-4.666667E-1,8.811189E-2,-5.784E-1,-3.9661017E-1,-5.4418606E-1,-1.6800001E-1,-5.466667E-1,-8.7804876E-2,-1.20000005E-1,4.1052634E-1,-4.357542E-2,2.6608697E-1,-5.217391E-1,-0E0,-3E-1,3.0980396E-1,-0E0,5.1600003E-1,-2.5E-1,-5.168317E-1,-5E-1,3.5E-1,-3.3157894E-1,2.7804878E-1,4.666667E-1,-0E0,-1.0000001E-1,2.8E-1,5.368421E-1,1.5E-1,-4.1538465E-1,2.8828526E-1,4.1908717E-1,2.1000001E-1,4.6068114E-1,5.3419024E-1],"split_indices":[7,6,6,6,7,5,5,5,7,6,6,6,5,0,6,5,7,7,1,7,7,5,7,0,4,5,4,0,4,7,0,4,6,0,5,0,5,4,4,0,6,4,5,5,0,2,2,0,4,0,0,6,4,0,0,0,0,0,6,0,4,0,0,0,0,0,0,0,0,0,0,0,0,0,0,0,0,0,0,0,0,0,0,0,0,0,0,0,0,0,0,0,0,0,0,0,0,0,0,0,0,0,0,0,0,0,0],"split_type":[0,0,0,0,0,0,0,0,0,0,0,0,0,0,0,0,0,0,0,0,0,0,0,0,0,0,0,0,0,0,0,0,0,0,0,0,0,0,0,0,0,0,0,0,0,0,0,0,0,0,0,0,0,0,0,0,0,0,0,0,0,0,0,0,0,0,0,0,0,0,0,0,0,0,0,0,0,0,0,0,0,0,0,0,0,0,0,0,0,0,0,0,0,0,0,0,0,0,0,0,0,0,0,0,0,0,0],"sum_hessian":[1.881E3,9.84E2,8.97E2,5.6925E2,4.1475E2,9.925E1,7.9775E2,4.225E2,1.4675E2,2.3575E2,1.79E2,7.625E1,2.3E1,8.25E0,7.895E2,4.09E2,1.35E1,7.625E1,7.05E1,1.59E2,7.675E1,1.1575E2,6.325E1,4.225E1,3.4E1,1.9E1,4E0,1.25E0,7E0,3.3725E2,4.5225E2,3.8075E2,2.825E1,7.75E0,5.75E0,5.675E1,1.95E1,3.225E1,3.825E1,1.3775E2,2.125E1,2.975E1,4.7E1,1.0025E2,1.55E1,3.825E1,2.5E1,2.925E1,1.3E1,2.725E1,6.75E0,4.75E0,1.425E1,2E0,2E0,6E0,1E0,1.485E2,1.8875E2,1E0,4.5125E2,3.795E2,1.25E0,1.575E1,1.25E1,4.5E0,1.25E0,9.75E0,9.75E0,3.075E1,1.5E0,3.5E0,3.475E1,1.24E2,1.375E1,9.75E0,1.15E1,1.025E1,1.95E1,5.25E0,4.175E1,4.375E1,5.65E1,1.05E1,5E0,1E0,3.725E1,1E0,2.4E1,5E0,2.425E1,8E0,5E0,1.8E1,9.25E0,5.75E0,1E0,2E0,2.75E0,1.325E1,1E0,2.25E0,1.4625E2,1.7975E2,9E0,1.605E2,2.9075E2],"tree_param":{"num_deleted":"0","num_feature":"8","num_nodes":"107","size_leaf_vector":"1"}},{"base_weights":[-4.3339054E-3,-8.618832E-1,9.2662877E-1,-1.2990197E0,-2.7704537E-1,1.0371092E-1,1.1389465E0,-1.5380516E0,-1.0429491E0,-7.5593704E-1,5.314285E-1,-4.8613313E-1,4.5144388E-1,-3.945244E-1,1.1521717E0,-4.6577126E-1,-9.7333986E-1,-1.4727627E0,-6.2337005E-1,-1.265134E0,3.0357802E-1,9.868244E-2,8.6914086E-1,-8.8507E-1,1.024069E0,-5.8916554E-2,8.282976E-1,9.720198E-1,1.2960725E0,-3.9786607E-1,-8.18197E-2,-4.6453527E-1,-1.2409039E0,-9.604609E-1,3.9776117E-1,-1.3579544E0,9.9877335E-2,-9.507145E-1,7.2723925E-1,-5.151635E-1,4.4205266E-1,1.7000583E-1,1.066857E0,-1.0338075E0,-8.039389E-3,1.2402548E0,-2.0573059E-1,-7.122394E-1,6.640942E-1,-3.810564E-1,8.972226E-1,1.1488615E0,8.6161494E-1,-1.8084157E-1,1.3038822E0,3.0868965E-1,-2.8925335E-1,-3.9073625E-1,-2.675763E-2,-4.2598435E-1,-9.335316E-2,-7.105684E-2,5.4037863E-1,-4.3241972E-1,-2.2893688E-1,3.3225548E-1,-3.8561344E-1,-3.7386382E-1,2.2960225E-1,-4.5413294E-1,2.5626367E-1,-6.261119E-2,-4.7531596E-1,2.1627748E-1,-2.657139E-1,-3.3275104E-1,2.4765733E-1,4.531148E-1,2.6640508E-1,-4.0356952E-1,-1.2545303E-1,2.6399043E-1,-3.683691E-1,4.1709185E-1,8.891293E-3,-2.7002063E-1,3.651132E-2,5.7028595E-2,3.3995616E-1,6.575406E-2,3.011308E-1,3.6700675E-1,-2.7111068E-1,2.7357823E-1,-5.330804E-1,1.2800892E-1,3.9404678E-1],"categories":[],"categories_nodes":[],"categories_segments":[],"categories_sizes":[],"default_left":[0,0,0,0,0,0,0,0,0,0,0,0,0,0,0,0,0,0,0,0,0,0,0,0,0,0,0,0,0,0,0,0,0,0,0,0,0,0,0,0,0,0,0,0,0,0,0,0,0,0,0,0,0,0,0,0,0,0,0,0,0,0,0,0,0,0,0,0,0,0,0,0,0,0,0,0,0,0,0,0,0,0,0,0,0,0,0,0,0,0,0,0,0,0,0,0,0],"id":1,"left_children":[1,3,5,7,9,11,13,15,17,19,21,23,25,-1,27,-1,29,31,33,35,37,39,41,43,45,47,49,51,53,-1,55,-1,57,59,61,63,65,67,69,71,73,75,77,79,81,83,-1,85,87,-1,89,91,93,-1,95,-1,-1,-1,-1,-1,-1,-1,-1,-1,-1,-1,-1,-1,-1,-1,-1,-1,-1,-1,-1,-1,-1,-1,-1,-1,-1,-1,-1,-1,-1,-1,-1,-1,-1,-1,-1,-1,-1,-1,-1,-1,-1],"loss_changes":[1.4226116E3,2.367702E2,1.4916351E2,3.0868896E1,1.5450208E2,3.6386402E1,2.3554321E1,7.213745E-1,4.583371E1,1.3545876E2,2.1637974E1,4.059743E1,2.1484314E1,0E0,1.6263916E1,0E0,2.881959E0,3.1292725E-1,4.613372E1,2.1585358E1,4.4305782E1,1.4198789E1,1.1341888E1,6.859745E0,6.1105356E0,2.327549E1,1.0422138E1,4.948883E0,6.314453E0,0E0,4.6785994E0,0E0,2.462017E0,2.9457916E1,3.0438347E1,6.7714233E0,1.776952E1,1.1681969E1,1.891201E1,7.6118E0,1.6577042E1,1.7323341E1,3.7983322E0,8.066456E0,1.0442049E1,2.3182774E0,0E0,4.157321E0,4.9947205E0,0E0,4.3112717E0,1.852304E1,2.7010788E1,0E0,2.5708618E0,0E0,0E0,0E0,0E0,0E0,0E0,0E0,0E0,0E0,0E0,0E0,0E0,0E0,0E0,0E0,0E0,0E0,0E0,0E0,0E0,0E0,0E0,0E0,0E0,0E0,0E0,0E0,0E0,0E0,0E0,0E0,0E0,0E0,0E0,0E0,0E0,0E0,0E0,0E0,0E0,0E0,0E0],"parents":[2147483647,0,0,1,1,2,2,3,3,4,4,5,5,6,6,7,7,8,8,9,9,10,10,11,11,12,12,14,14,16,16,17,17,18,18,19,19,20,20,21,21,22,22,23,23,24,24,25,25,26,26,27,27,28,28,30,30,32,32,33,33,34,34,35,35,36,36,37,37,38,38,39,39,40,40,41,41,42,42,43,43,44,44,45,45,47,47,48,48,50,50,51,51,52,52,54,54],"right_children":[2,4,6,8,10,12,14,16,18,20,22,24,26,-1,28,-1,30,32,34,36,38,40,42,44,46,48,50,52,54,-1,56,-1,58,60,62,64,66,68,70,72,74,76,78,80,82,84,-1,86,88,-1,90,92,94,-1,96,-1,-1,-1,-1,-1,-1,-1,-1,-1,-1,-1,-1,-1,-1,-1,-1,-1,-1,-1,-1,-1,-1,-1,-1,-1,-1,-1,-1,-1,-1,-1,-1,-1,-1,-1,-1,-1,-1,-1,-1,-1,-1],"split_conditions":[2.2373924E-2,5.577129E-2,6.593029E-2,3.5531916E-2,-6.733911E-3,5.2238807E-2,1.57173E5,1.8729642E-2,-2.4564276E-3,1.1949953E-1,7.504363E-2,5.203723E6,1.60388E3,-3.945244E-1,1.0450726E-1,-4.6577126E-1,3.989759E4,-1.1411987E-2,4.560133E3,5.280611E12,-8.301966E-2,1.236411E6,7.527193E8,1.6000541E12,4.714927E5,4.000756E-2,2.4602814E4,1.4200307E-1,8.32E-6,-3.9786607E-1,6.231207E4,-4.6453527E-1,5.4635942E-2,4.6742544E-2,5.54262E4,5.306245E6,1.933E-5,4.776709E-1,2.4122617E-5,5.816901E-1,3.374538E6,2.2619377E3,8.3519E5,2.832E4,1.3174138E-5,5.740963E6,-2.0573059E-1,6.4300396E-2,1.4967924E9,-3.810564E-1,2.9100893E-2,3.158178E6,2.8914363E9,-1.8084157E-1,8.272785E4,3.0868965E-1,-2.8925335E-1,-3.9073625E-1,-2.675763E-2,-4.2598435E-1,-9.335316E-2,-7.105684E-2,5.4037863E-1,-4.3241972E-1,-2.2893688E-1,3.3225548E-1,-3.8561344E-1,-3.7386382E-1,2.2960225E-1,-4.5413294E-1,2.5626367E-1,-6.261119E-2,-4.7531596E-1,2.1627748E-1,-2.657139E-1,-3.3275104E-1,2.4765733E-1,4.531148E-1,2.6640508E-1,-4.0356952E-1,-1.2545303E-1,2.6399043E-1,-3.683691E-1,4.1709185E-1,8.891293E-3,-2.7002063E-1,3.651132E-2,5.7028595E-2,3.3995616E-1,6.575406E-2,3.011308E-1,3.6700675E-1,-2.7111068E-1,2.7357823E-1,-5.330804E-1,1.2800892E-1,3.9404678E-1],"split_indices":[7,6,6,6,7,6,5,7,7,6,6,5,0,0,6,0,0,7,0,4,7,5,4,4,4,7,4,3,1,0,0,0,6,6,4,5,0,6,1,0,5,1,5,0,0,5,0,6,4,0,7,5,4,0,4,0,0,0,0,0,0,0,0,0,0,0,0,0,0,0,0,0,0,0,0,0,0,0,0,0,0,0,0,0,0,0,0,0,0,0,0,0,0,0,0,0,0],"split_type":[0,0,0,0,0,0,0,0,0,0,0,0,0,0,0,0,0,0,0,0,0,0,0,0,0,0,0,0,0,0,0,0,0,0,0,0,0,0,0,0,0,0,0,0,0,0,0,0,0,0,0,0,0,0,0,0,0,0,0,0,0,0,0,0,0,0,0,0,0,0,0,0,0,0,0,0,0,0,0,0,0,0,0,0,0,0,0,0,0,0,0,0,0,0,0,0,0],"sum_hessian":[1.7799473E3,9.2654315E2,8.534041E2,5.2952734E2,3.970158E2,1.7533101E2,6.780731E2,2.7128598E2,2.5824136E2,2.493693E2,1.476465E2,6.4879974E1,1.1045103E2,3.10699E0,6.749661E2,2.6278036E2,8.5056305E0,1.2632495E2,1.3191641E2,1.6829405E2,8.107524E1,6.528379E1,8.236272E1,5.1649986E1,1.3229987E1,4.7273613E1,6.3177418E1,3.0317316E2,3.7179297E2,5.744325E0,2.761305E0,9.0955086E1,3.536987E1,9.922136E1,3.2695053E1,1.5758359E2,1.0710467E1,2.0156326E1,6.091892E1,2.3238968E1,4.2044823E1,1.8567366E1,6.3795353E1,4.400784E1,7.642144E0,1.1988802E1,1.2411855E0,2.4841434E1,2.2432178E1,1.4548411E0,6.1722576E1,1.129111E2,1.9026204E2,1.2108135E0,3.7058215E2,1.148865E0,1.6124401E0,3.345127E1,1.9185995E0,5.740786E1,4.1813496E1,2.3087072E1,9.607982E0,1.3694882E2,2.0634766E1,6.316392E0,4.394076E0,1.7428923E1,2.7274024E0,2.6808622E0,5.8238056E1,1.8990984E1,4.2479835E0,3.5124596E1,6.920224E0,6.0565643E0,1.2510801E1,1.619245E1,4.76029E1,2.843735E1,1.5570492E1,4.5838876E0,3.0582564E0,1.0534644E1,1.4541572E0,2.0210197E1,4.6312385E0,1.1856708E1,1.057547E1,8.797043E0,5.2925533E1,1.0934654E2,3.564561E0,1.8734412E2,2.9179316E0,4.5066338E0,3.6607553E2],"tree_param":{"num_deleted":"0","num_feature":"8","num_nodes":"97","size_leaf_vector":"1"}},{"base_weights":[-9.292341E-3,-7.0251185E-1,7.2929615E-1,-1.205834E0,-3.1841782E-1,1.8694246E-1,9.613093E-1,-1.2461832E0,-2.2297592E-1,-7.9059345E-1,1.452079E-1,-3.8429254E-1,3.8433194E-1,-2.2940825E-1,9.79584E-1,-1.3456103E0,-1.0319388E0,-3.7230864E-1,9.129335E-1,-1.1609632E0,3.2280108E-1,-1.2258016E-1,6.6696924E-1,-6.975924E-1,8.3175904E-1,5.81028E-2,7.0428264E-1,-5.388963E-1,7.4822664E-1,7.8187203E-1,1.0589654E0,-4.0596712E-1,3.0616933E-2,-1.2287352E0,-4.6023226E-1,1.129013E0,-4.724728E-2,-1.2308083E0,-5.9102345E-1,-1.3919632E0,6.9030654E-1,-4.4234696E-1,-2.6921783E-2,1.0714864E-1,9.1117316E-1,-1.1479053E0,-4.496757E-1,1.0303315E0,-1.7232466E-1,1.8320546E-1,-1.5270476E0,3.9847817E-2,8.8611853E-1,2.0082373E-6,3.004076E-1,2.235008E-1,9.452809E-1,9.608187E-1,1.1463326E0,-3.8130435E-1,-1.6451932E-1,-3.9342976E-1,-1.695391E-2,3.774245E-1,1.3574614E-1,-3.8069797E-1,-6.753484E-2,-4.3973678E-1,1.9204219E-1,-4.4084355E-1,-1.2624344E-1,-1.8361115E-1,3.3238375E-1,-1.0981229E-1,7.071811E-2,-9.453225E-2,2.9609603E-1,2.945029E-1,5.841604E-2,-4.0024033E-1,-3.0385999E-2,-3.8630858E-1,-1.7656969E-2,3.5157105E-1,7.3098415E-3,-8.215794E-2,1.7785521E-1,-1.6707373E-1,-5.0798965E-1,1.269589E-1,-5.120726E-1,1.7105633E-1,3.645064E-1,-6.856937E-2,2.3024179E-1,-1.9501152E-2,2.8749526E-1,-1.4736879E-1,2.9954407E-1,6.0724515E-2,3.4716094E-1],"categories":[],"categories_nodes":[],"categories_segments":[],"categories_sizes":[],"default_left":[0,0,0,0,0,0,0,0,0,0,0,0,0,0,0,0,0,0,0,0,0,0,0,0,0,0,0,0,0,0,0,0,0,0,0,0,0,0,0,0,0,0,0,0,0,0,0,0,0,0,0,0,0,0,0,0,0,0,0,0,0,0,0,0,0,0,0,0,0,0,0,0,0,0,0,0,0,0,0,0,0,0,0,0,0,0,0,0,0,0,0,0,0,0,0,0,0,0,0,0,0],"id":2,"left_children":[1,3,5,7,9,11,13,15,17,19,21,23,25,27,29,31,33,-1,35,37,39,41,43,45,47,49,51,-1,53,55,57,-1,-1,59,61,63,-1,65,67,69,71,-1,73,75,77,79,81,83,-1,85,87,89,91,-1,-1,93,95,97,99,-1,-1,-1,-1,-1,-1,-1,-1,-1,-1,-1,-1,-1,-1,-1,-1,-1,-1,-1,-1,-1,-1,-1,-1,-1,-1,-1,-1,-1,-1,-1,-1,-1,-1,-1,-1,-1,-1,-1,-1,-1,-1],"loss_changes":[8.201778E2,1.5936292E2,9.741348E1,1.3891418E1,1.030102E2,2.6489342E1,1.2039429E1,5.9176025E0,1.8834654E1,9.646571E1,3.3336395E1,2.3628094E1,1.8133448E1,1.5157514E1,7.567688E0,2.6838684E0,1.2149071E1,0E0,1.9844818E0,6.241867E0,3.8109264E1,2.0409615E1,1.0959362E1,4.9146423E0,4.179632E0,1.7592909E1,1.057457E1,0E0,1.1853976E0,1.4120354E1,2.1473694E0,0E0,0E0,1.7039413E0,1.04200945E1,8.915901E-3,0E0,5.668091E0,2.3594315E1,1.897831E-1,2.744548E1,0E0,1.33306055E1,9.858394E0,2.6466522E0,3.1059227E0,1.0737895E1,1.6258955E0,0E0,1.5480322E1,1.0426903E-1,1.4058489E1,6.466736E0,0E0,0E0,9.242174E0,1.6585922E0,1.0585968E1,1.7693176E0,0E0,0E0,0E0,0E0,0E0,0E0,0E0,0E0,0E0,0E0,0E0,0E0,0E0,0E0,0E0,0E0,0E0,0E0,0E0,0E0,0E0,0E0,0E0,0E0,0E0,0E0,0E0,0E0,0E0,0E0,0E0,0E0,0E0,0E0,0E0,0E0,0E0,0E0,0E0,0E0,0E0,0E0],"parents":[2147483647,0,0,1,1,2,2,3,3,4,4,5,5,6,6,7,7,8,8,9,9,10,10,11,11,12,12,13,13,14,14,15,15,16,16,18,18,19,19,20,20,21,21,22,22,23,23,24,24,25,25,26,26,28,28,29,29,30,30,33,33,34,34,35,35,37,37,38,38,39,39,40,40,42,42,43,43,44,44,45,45,46,46,47,47,49,49,50,50,51,51,52,52,55,55,56,56,57,57,58,58],"right_children":[2,4,6,8,10,12,14,16,18,20,22,24,26,28,30,32,34,-1,36,38,40,42,44,46,48,50,52,-1,54,56,58,-1,-1,60,62,64,-1,66,68,70,72,-1,74,76,78,80,82,84,-1,86,88,90,92,-1,-1,94,96,98,100,-1,-1,-1,-1,-1,-1,-1,-1,-1,-1,-1,-1,-1,-1,-1,-1,-1,-1,-1,-1,-1,-1,-1,-1,-1,-1,-1,-1,-1,-1,-1,-1,-1,-1,-1,-1,-1,-1,-1,-1,-1,-1],"split_conditions":[2.2373924E-2,4.6319596E-2,7.4715614E-2,5.263893E6,-1.3893298E-2,5.2238807E-2,9.14E-6,1.385453E6,1.4545455E-2,1.3598633E-1,7.9984285E-2,5.203723E6,1.60388E3,2.079637E12,5.277244E-2,3.687267E12,3.887351E-2,-3.7230864E-1,5.878911E6,1.1227067E-1,1.985671E6,2.24101E5,1.8298629E9,7.4253E5,4.714927E5,1.837198E6,4.7366125E4,-5.388963E-1,6.87E-6,1.01447366E9,1.6366008E9,-4.0596712E-1,3.0616933E-2,1.8124921E-2,3E3,5.422528E6,-4.724728E-2,5.280611E12,-4.597701E-2,-5.001096E-2,1.8298629E9,-4.4234696E-1,3.94011E-3,1.5433357E-2,3.138847E-1,1.6000541E12,4.4517836E4,5.740963E6,-1.7232466E-1,1.4293362E9,2.5528586E-2,5.648478E6,4.560133E3,2.0082373E-6,3.004076E-1,2.2748198E3,1.83584E5,4.22687E5,7.8784205E-2,-3.8130435E-1,-1.6451932E-1,-3.9342976E-1,-1.695391E-2,3.774245E-1,1.3574614E-1,-3.8069797E-1,-6.753484E-2,-4.3973678E-1,1.9204219E-1,-4.4084355E-1,-1.2624344E-1,-1.8361115E-1,3.3238375E-1,-1.0981229E-1,7.071811E-2,-9.453225E-2,2.9609603E-1,2.945029E-1,5.841604E-2,-4.0024033E-1,-3.0385999E-2,-3.8630858E-1,-1.7656969E-2,3.5157105E-1,7.3098415E-3,-8.215794E-2,1.7785521E-1,-1.6707373E-1,-5.0798965E-1,1.269589E-1,-5.120726E-1,1.7105633E-1,3.645064E-1,-6.856937E-2,2.3024179E-1,-1.9501152E-2,2.8749526E-1,-1.4736879E-1,2.9954407E-1,6.0724515E-2,3.4716094E-1],"split_indices":[7,6,6,5,7,6,1,5,7,6,6,5,0,4,7,4,6,0,5,6,5,5,4,5,4,5,4,0,1,4,4,0,0,7,1,5,0,4,7,7,4,0,7,7,0,4,4,5,0,4,7,5,0,0,0,0,5,5,6,0,0,0,0,0,0,0,0,0,0,0,0,0,0,0,0,0,0,0,0,0,0,0,0,0,0,0,0,0,0,0,0,0,0,0,0,0,0,0,0,0,0],"split_type":[0,0,0,0,0,0,0,0,0,0,0,0,0,0,0,0,0,0,0,0,0,0,0,0,0,0,0,0,0,0,0,0,0,0,0,0,0,0,0,0,0,0,0,0,0,0,0,0,0,0,0,0,0,0,0,0,0,0,0,0,0,0,0,0,0,0,0,0,0,0,0,0,0,0,0,0,0,0,0,0,0,0,0,0,0,0,0,0,0,0,0,0,0,0,0,0,0,0,0,0,0],"sum_hessian":[1.5998967E3,8.253211E2,7.745756E2,3.5629187E2,4.6902924E2,2.3261679E2,5.419588E2,3.419845E2,1.4307362E1,2.3202258E2,2.3700665E2,5.949486E1,1.7312193E2,8.017391E0,5.3394147E2,2.2997589E2,1.1200861E2,7.4963E0,6.8110614E0,1.7407423E2,5.7948357E1,1.5712772E2,7.9878944E1,4.764587E1,1.1848991E1,8.630498E1,8.6816956E1,2.7586024E0,5.2587886E0,1.5607118E2,3.7787027E2,2.2883765E2,1.1382377E0,8.2470764E1,2.9537853E1,5.621544E0,1.1895174E0,1.5403763E2,2.00366E1,9.735472E0,4.8212883E1,9.430819E0,1.476969E2,2.4698381E1,5.518056E1,1.5628405E1,3.2017467E1,1.0616996E1,1.231995E0,8.0811615E1,5.4933605E0,1.8916075E1,6.790088E1,1.5821669E0,3.6766217E0,3.5870113E1,1.20201065E2,1.8360703E2,1.9426323E2,7.68281E1,5.6426606E0,8.779278E0,2.0758575E1,3.9989898E0,1.6225542E0,1.4815073E2,5.886909E0,1.1602341E1,8.434258E0,8.540646E0,1.1948262E0,1.1593834E1,3.661905E1,6.429226E1,8.340463E1,1.7122654E1,7.5757284E0,4.9899925E1,5.2806363E0,1.303443E1,2.5939753E0,9.452961E0,2.2564507E1,9.162571E0,1.4544251E0,3.835177E1,4.245985E1,1.4400387E0,4.053322E0,1.6133165E1,2.7829094E0,3.602771E1,3.187317E1,1.9906624E1,1.5963489E1,1.4805193E0,1.1872055E2,4.337325E0,1.792697E2,2.4350958E0,1.9182814E2],"tree_param":{"num_deleted":"0","num_feature":"8","num_nodes":"101","size_leaf_vector":"1"}},{"base_weights":[-1.3106936E-2,-5.875173E-1,5.842364E-1,-1.100825E0,-2.7091143E-1,1.18002236E-1,7.821537E-1,-1.1734041E0,-5.2074534E-1,-6.806846E-1,6.969988E-2,-1.1412251E0,1.9103722E-1,6.2382007E-1,8.97234E-1,-1.2093236E0,-8.2477427E-1,-3.6782756E-1,7.33031E-2,-1.0666791E0,1.3636789E-1,-1.6035645E-1,4.784583E-1,-4.0218225E-1,-4.797421E-2,-1.1058995E0,2.4510176E-1,7.040326E-1,1.6881756E-1,-1.3687228E-1,9.041277E-1,-3.6371362E-1,-9.017211E-2,-1.1519917E0,1.9443521E-1,-3.2827812E-1,7.078471E-1,-1.1329106E0,-5.799723E-1,-3.104229E-1,8.6340964E-1,-6.407347E-1,1.19243585E-1,6.4389396E-1,6.0588323E-2,-3.929882E-1,2.2802306E-3,4.7852065E-2,6.957614E-1,-4.7755507E-1,7.4287826E-1,-1.5841571E0,5.944312E-1,7.437517E-1,9.8585194E-1,-3.5800472E-1,-6.7009136E-2,4.929947E-1,-3.1446046E-1,3.4986806E-1,8.786275E-2,-3.5380608E-1,-6.595236E-2,3.446582E-1,-2.5121292E-1,-4.3498167E-1,1.1023259E-2,3.4962386E-1,9.468563E-2,-3.1861332E-1,-5.7144765E-2,-3.9203754E-1,6.482951E-2,4.710431E-2,2.3742642E-1,-1.6743517E-1,1.9446631E-1,-5.07498E-1,5.390336E-2,-4.7848114E-1,2.5032815E-1,-4.357995E-1,1.421848E-1,2.8510764E-1,1.7659616E-1,-9.61924E-2,-6.05241E-1,-1.5419543E-1,2.3295982E-1,2.4292573E-1,-3.3187017E-1,2.7290744E-1,3.4391606E-1],"categories":[],"categories_nodes":[],"categories_segments":[],"categories_sizes":[],"default_left":[0,0,0,0,0,0,0,0,0,0,0,0,0,0,0,0,0,0,0,0,0,0,0,0,0,0,0,0,0,0,0,0,0,0,0,0,0,0,0,0,0,0,0,0,0,0,0,0,0,0,0,0,0,0,0,0,0,0,0,0,0,0,0,0,0,0,0,0,0,0,0,0,0,0,0,0,0,0,0,0,0,0,0,0,0,0,0,0,0,0,0,0,0],"id":3,"left_children":[1,3,5,7,9,11,13,15,17,19,21,23,25,27,29,31,33,-1,35,37,39,41,43,-1,-1,45,47,49,51,-1,53,-1,-1,55,57,-1,59,61,63,65,67,69,71,73,75,-1,-1,77,79,81,83,85,87,89,91,-1,-1,-1,-1,-1,-1,-1,-1,-1,-1,-1,-1,-1,-1,-1,-1,-1,-1,-1,-1,-1,-1,-1,-1,-1,-1,-1,-1,-1,-1,-1,-1,-1,-1,-1,-1,-1,-1],"loss_changes":[4.8732703E2,1.1736795E2,6.415503E1,1.1004181E1,6.2735825E1,1.94081E1,8.342957E0,2.0631714E0,1.3698357E1,6.447177E1,2.3226578E1,2.051755E0,1.4160018E1,7.506462E0,3.0312042E0,2.4484253E-1,8.886433E0,0E0,1.453502E1,3.8119354E0,2.1813896E1,2.1334274E1,6.1071606E0,0E0,0E0,1.852313E0,1.6942577E1,8.492874E0,2.5284916E1,0E0,2.9310608E0,0E0,0E0,4.94112E-1,1.4627998E1,0E0,2.0628772E0,4.8710785E0,9.263659E0,1.6596485E1,3.8525429E0,1.0873148E1,1.4216447E1,4.4430943E0,9.930759E0,0E0,0E0,3.1010159E1,1.977483E1,6.489354E0,4.945938E0,2.9923763E0,5.8450174E0,1.2916096E1,1.1838989E0,0E0,0E0,0E0,0E0,0E0,0E0,0E0,0E0,0E0,0E0,0E0,0E0,0E0,0E0,0E0,0E0,0E0,0E0,0E0,0E0,0E0,0E0,0E0,0E0,0E0,0E0,0E0,0E0,0E0,0E0,0E0,0E0,0E0,0E0,0E0,0E0,0E0,0E0],"parents":[2147483647,0,0,1,1,2,2,3,3,4,4,5,5,6,6,7,7,8,8,9,9,10,10,11,11,12,12,13,13,14,14,15,15,16,16,18,18,19,19,20,20,21,21,22,22,25,25,26,26,27,27,28,28,30,30,33,33,34,34,36,36,37,37,38,38,39,39,40,40,41,41,42,42,43,43,44,44,47,47,48,48,49,49,50,50,51,51,52,52,53,53,54,54],"right_children":[2,4,6,8,10,12,14,16,18,20,22,24,26,28,30,32,34,-1,36,38,40,42,44,-1,-1,46,48,50,52,-1,54,-1,-1,56,58,-1,60,62,64,66,68,70,72,74,76,-1,-1,78,80,82,84,86,88,90,92,-1,-1,-1,-1,-1,-1,-1,-1,-1,-1,-1,-1,-1,-1,-1,-1,-1,-1,-1,-1,-1,-1,-1,-1,-1,-1,-1,-1,-1,-1,-1,-1,-1,-1,-1,-1,-1,-1],"split_conditions":[2.2373924E-2,4.4415776E-2,7.355327E-2,3.902263E6,-1.3893298E-2,1.90817E5,1.0450726E-1,1.5433357E-2,2.1376114E-3,1.2020143E-1,7.504363E-2,4.8943948E-2,2.4602814E4,3.278899E6,8.32E-6,3.687267E12,4.3273637E4,-3.6782756E-1,3.4715846E-2,5.306245E6,-4.7768336E-2,1.201405E6,3.330096E6,-4.0218225E-1,-4.797421E-2,5.203723E6,4.788E3,8.43E-6,2.08659E3,-1.3687228E-1,1.6366008E9,-3.6371362E-1,-9.017211E-2,2.2714033E12,4.975053E4,-3.2827812E-1,4.47315E6,5.280611E12,5.495509E6,9.697E-2,-2.4739584E-2,1.01447366E9,3.7920668E4,-1.0452962E-3,1.1488531E-1,-3.929882E-1,2.2802306E-3,3.7506525E5,1.747686E6,2.079637E12,1.4200307E-1,2.421175E-5,4.977577E6,1.4293362E9,1.1960069E-1,-3.5800472E-1,-6.7009136E-2,4.929947E-1,-3.1446046E-1,3.4986806E-1,8.786275E-2,-3.5380608E-1,-6.595236E-2,3.446582E-1,-2.5121292E-1,-4.3498167E-1,1.1023259E-2,3.4962386E-1,9.468563E-2,-3.1861332E-1,-5.7144765E-2,-3.9203754E-1,6.482951E-2,4.710431E-2,2.3742642E-1,-1.6743517E-1,1.9446631E-1,-5.07498E-1,5.390336E-2,-4.7848114E-1,2.5032815E-1,-4.357995E-1,1.421848E-1,2.8510764E-1,1.7659616E-1,-9.61924E-2,-6.05241E-1,-1.5419543E-1,2.3295982E-1,2.4292573E-1,-3.3187017E-1,2.7290744E-1,3.4391606E-1],"split_indices":[7,6,6,5,7,5,6,7,7,6,6,7,4,5,1,4,2,0,6,5,7,5,5,0,0,5,1,2,0,0,4,0,0,4,0,0,5,4,5,2,7,4,4,7,6,0,0,4,5,4,3,0,5,4,7,0,0,0,0,0,0,0,0,0,0,0,0,0,0,0,0,0,0,0,0,0,0,0,0,0,0,0,0,0,0,0,0,0,0,0,0,0,0],"split_type":[0,0,0,0,0,0,0,0,0,0,0,0,0,0,0,0,0,0,0,0,0,0,0,0,0,0,0,0,0,0,0,0,0,0,0,0,0,0,0,0,0,0,0,0,0,0,0,0,0,0,0,0,0,0,0,0,0,0,0,0,0,0,0,0,0,0,0,0,0,0,0,0,0,0,0,0,0,0,0,0,0,0,0,0,0,0,0,0,0,0,0,0,0],"sum_hessian":[1.4182804E3,7.2302747E2,6.9525287E2,2.748847E2,4.481428E2,2.0766125E2,4.875916E2,2.43407E2,3.1477697E1,2.0296585E2,2.4517694E2,1.0582258E1,1.97079E2,2.079304E2,2.7966122E2,2.1843289E2,2.4974104E1,1.3904343E1,1.7573355E1,1.3763728E2,6.532856E1,1.5727022E2,8.7906715E1,8.490936E0,2.0913224E0,7.108174E0,1.8997081E2,1.7630264E2,3.1627758E1,1.0868826E0,2.7857434E2,2.1736801E2,1.0648793E0,1.8806116E1,6.167987E0,5.9326935E0,1.1640662E1,1.1998229E2,1.7654991E1,4.0817757E1,2.4510805E1,5.738536E1,9.9884865E1,6.2587345E1,2.5319372E1,5.8581653E0,1.2500087E0,1.3290546E2,5.7065353E1,5.2521358E0,1.710505E2,5.6470804E0,2.5980677E1,9.744622E1,1.8112811E2,1.7731367E1,1.0747507E0,2.6988082E0,3.4691787E0,4.670842E0,6.9698195E0,1.1389731E2,6.0849853E0,1.8391607E0,1.581583E1,8.789909E0,3.2027847E1,1.5073269E1,9.437536E0,2.8943544E1,2.8441816E1,5.5581098E0,9.432675E1,1.5034339E1,4.7553005E1,1.2358065E1,1.2961307E1,8.528943E0,1.2437652E2,2.657791E0,5.4407562E1,2.3337672E0,2.9183686E0,7.073177E1,1.0031873E2,1.8864053E0,3.760675E0,3.4088933E0,2.2571785E1,9.463238E1,2.8138442E0,1.2736877E2,5.375935E1],"tree_param":{"num_deleted":"0","num_feature":"8","num_nodes":"93","size_leaf_vector":"1"}},{"base_weights":[-1.7733766E-2,-7.408291E-1,3.072211E-1,-1.1282454E0,-4.9831152E-1,-3.738642E-1,5.099951E-1,-3.4684044E-1,-6.740462E-1,-1.0517452E0,-2.52162E-1,-7.6546746E-1,7.9218976E-2,2.7656907E-1,6.9533026E-1,-3.1378138E-1,-1.0365572E-1,-3.475468E-1,-7.988134E-1,-5.3042895E-1,3.4547475E-1,-9.828326E-1,-3.4683332E-1,-3.4392E-1,5.4156166E-1,-9.175176E-1,3.1846583E-1,-2.822737E-1,7.052366E-1,3.441853E-1,-2.9372063E-1,-2.4077225E-1,-1.1010251E0,-8.339758E-1,-2.561246E-1,-1.535181E-1,1.3758161E0,-3.3757424E-1,-5.384134E-1,-1.236825E0,-5.3762272E-2,-8.223074E-1,2.5030217E-1,-4.5368686E-1,8.9466804E-1,1.5374507E-1,-3.9301428E-1,3.7598336E-1,-6.526215E-1,5.1699746E-1,7.901519E-1,3.125285E-1,-2.9683965E-1,-3.55304E-1,-1.6246164E-1,-3.5424614E-1,-3.2747082E-2,-4.4210094E-1,-1.7671796E-2,-3.9342085E-1,5.019964E-2,4.3338385E-1,1.7040311E-1,-3.3857608E-1,-1.2193813E-2,-4.055228E-1,-6.5842494E-2,1.8122345E-2,-4.311977E-1,-3.7021646E-1,-1.4492977E-1,3.1097472E-1,-8.426267E-2,-5.03776E-1,2.2107954E-1,-2.1816725E-1,3.258437E-1,5.779596E-2,2.0872648E-1,-5.051045E-1,1.2748036E-1,-3.2932854E-1,1.7959425E-1,2.2232203E-1,3.1376955E-1],"categories":[],"categories_nodes":[],"categories_segments":[],"categories_sizes":[],"default_left":[0,0,0,0,0,0,0,0,0,0,0,0,0,0,0,0,0,0,0,0,0,0,0,0,0,0,0,0,0,0,0,0,0,0,0,0,0,0,0,0,0,0,0,0,0,0,0,0,0,0,0,0,0,0,0,0,0,0,0,0,0,0,0,0,0,0,0,0,0,0,0,0,0,0,0,0,0,0,0,0,0,0,0,0,0],"id":4,"left_children":[1,3,5,7,9,11,13,-1,15,17,19,21,23,25,27,-1,29,-1,31,33,35,37,39,41,43,45,47,-1,49,-1,-1,51,53,55,57,59,61,-1,63,65,67,69,71,73,75,-1,-1,77,79,81,83,-1,-1,-1,-1,-1,-1,-1,-1,-1,-1,-1,-1,-1,-1,-1,-1,-1,-1,-1,-1,-1,-1,-1,-1,-1,-1,-1,-1,-1,-1,-1,-1,-1,-1],"loss_changes":[2.9565292E2,3.609149E1,1.2008813E2,1.113205E0,3.266343E1,3.550164E1,2.8767563E1,0E0,2.2336688E0,1.0751266E0,2.82254E1,9.417297E0,1.8480259E1,1.5196928E1,6.701126E0,0E0,7.1108093E0,0E0,3.9867039E0,9.398937E0,2.806441E1,3.8271942E0,9.896099E0,1.4259214E1,1.624611E1,6.484723E0,1.636328E1,0E0,5.5186615E0,0E0,0E0,1.0764349E1,1.0798073E-1,1.3536873E1,1.4821783E1,1.4113227E1,1.6736984E-1,0E0,5.5108676E0,8.042183E-1,4.7907877E0,3.2616482E0,9.820242E0,1.9429728E1,1.1226521E1,0E0,0E0,1.5874191E1,1.9049301E1,1.6236784E1,2.4085693E0,0E0,0E0,0E0,0E0,0E0,0E0,0E0,0E0,0E0,0E0,0E0,0E0,0E0,0E0,0E0,0E0,0E0,0E0,0E0,0E0,0E0,0E0,0E0,0E0,0E0,0E0,0E0,0E0,0E0,0E0,0E0,0E0,0E0,0E0],"parents":[2147483647,0,0,1,1,2,2,3,3,4,4,5,5,6,6,8,8,9,9,10,10,11,11,12,12,13,13,14,14,16,16,18,18,19,19,20,20,21,21,22,22,23,23,24,24,25,25,26,26,28,28,31,31,32,32,33,33,34,34,35,35,36,36,38,38,39,39,40,40,41,41,42,42,43,43,44,44,47,47,48,48,49,49,50,50],"right_children":[2,4,6,8,10,12,14,-1,16,18,20,22,24,26,28,-1,30,-1,32,34,36,38,40,42,44,46,48,-1,50,-1,-1,52,54,56,58,60,62,-1,64,66,68,70,72,74,76,-1,-1,78,80,82,84,-1,-1,-1,-1,-1,-1,-1,-1,-1,-1,-1,-1,-1,-1,-1,-1,-1,-1,-1,-1,-1,-1,-1,-1,-1,-1,-1,-1,-1,-1,-1,-1,-1,-1],"split_conditions":[5.5322714E-2,3.5531916E-2,-1.0452962E-3,1.8729642E-2,-2.4564276E-3,2.52816E6,8.700305E-2,-3.4684044E-1,3.989759E4,-1.1411987E-2,9.078629E3,-1.9534813E-2,1.3598633E-1,1.68991E5,7.19E-6,-3.1378138E-1,4.599306E4,-3.475468E-1,4.714927E5,4.71754E-2,5.54262E4,1.17463455E-1,6.1747823E-2,-2.2499159E-2,1.2614902E9,7.83E-6,5.422528E6,-2.822737E-1,1.06143744E9,3.441853E-1,-2.9372063E-1,1.680666E6,5.2542374E-2,2.43562E3,4.714927E5,1.858276E6,5.403506E-2,-3.3757424E-1,-7.509479E-2,-4.603299E-3,8.803393E12,-4.597701E-2,3.419393E6,3.14471E3,2.436E-5,1.5374507E-1,-3.9301428E-1,1.60388E3,7.770981E6,5.88631E5,2.5544354E-1,3.125285E-1,-2.9683965E-1,-3.55304E-1,-1.6246164E-1,-3.5424614E-1,-3.2747082E-2,-4.4210094E-1,-1.7671796E-2,-3.9342085E-1,5.019964E-2,4.3338385E-1,1.7040311E-1,-3.3857608E-1,-1.2193813E-2,-4.055228E-1,-6.5842494E-2,1.8122345E-2,-4.311977E-1,-3.7021646E-1,-1.4492977E-1,3.1097472E-1,-8.426267E-2,-5.03776E-1,2.2107954E-1,-2.1816725E-1,3.258437E-1,5.779596E-2,2.0872648E-1,-5.051045E-1,1.2748036E-1,-3.2932854E-1,1.7959425E-1,2.2232203E-1,3.1376955E-1],"split_indices":[6,6,7,7,7,5,6,0,0,7,0,7,6,5,0,0,0,0,4,6,4,6,6,7,4,3,5,0,4,0,0,5,6,3,4,5,6,0,7,7,4,7,5,0,2,0,0,0,5,5,6,0,0,0,0,0,0,0,0,0,0,0,0,0,0,0,0,0,0,0,0,0,0,0,0,0,0,0,0,0,0,0,0,0,0],"split_type":[0,0,0,0,0,0,0,0,0,0,0,0,0,0,0,0,0,0,0,0,0,0,0,0,0,0,0,0,0,0,0,0,0,0,0,0,0,0,0,0,0,0,0,0,0,0,0,0,0,0,0,0,0,0,0,0,0,0,0,0,0,0,0,0,0,0,0,0,0,0,0,0,0,0,0,0,0,0,0,0,0,0,0,0,0],"sum_hessian":[1.2562715E3,3.8911844E2,8.671531E2,1.4840025E2,2.4071819E2,1.9874768E2,6.684054E2,1.3835912E2,1.0041143E1,7.3096924E1,1.6762128E2,1.0623687E2,9.251081E1,2.9692566E2,3.7147974E2,5.5735164E0,4.467627E0,4.8885624E1,2.4211298E1,1.1444619E2,5.317508E1,6.9041245E1,3.719562E1,4.8437046E1,4.407376E1,9.356596E0,2.8756906E2,1.6699542E0,3.6980978E2,1.7114502E0,2.756177E0,9.136758E0,1.5074541E1,5.3358757E1,6.1087433E1,3.639839E1,1.6776688E1,5.112591E1,1.7915333E1,8.416465E0,2.8779158E1,2.6621319E1,2.181573E1,1.1467417E1,3.2606342E1,1.9493716E0,7.4072247E0,2.7206732E2,1.55017395E1,1.17165985E2,2.5264378E2,3.2234507E0,5.9133067E0,1.214848E1,2.9260604E0,3.5663647E1,1.769511E1,7.6133747E0,5.347406E1,7.227719E0,2.9170673E1,1.4733588E1,2.0430994E0,7.6170025E0,1.029833E1,7.2669196E0,1.1495453E0,2.7468801E1,1.3103555E0,1.0833296E1,1.5788023E1,8.412128E0,1.3403601E1,5.4485416E0,6.0188746E0,3.1475303E0,2.9458813E1,1.7394456E2,9.8122765E1,7.6343284E0,7.867411E0,5.0403485E0,1.1212563E2,2.1523692E2,3.740686E1],"tree_param":{"num_deleted":"0","num_feature":"8","num_nodes":"85","size_leaf_vector":"1"}},{"base_weights":[-2.3035202E-2,-6.934416E-1,2.2173859E-1,-1.0743519E0,-4.5006093E-1,-2.692037E-1,4.1317257E-1,-3.3178163E-1,-6.01677E-1,-7.9353064E-1,-8.7894626E-2,-4.3375796E-1,2.4005231E-1,2.1082903E-1,5.91013E-1,-2.8802148E-1,-7.9431966E-2,-1.1033711E0,-4.4141933E-1,-7.949728E-1,1.5976232E-1,-8.347264E-1,-1.2110412E-1,-6.614559E-1,5.3807026E-1,-9.404707E-1,2.4663407E-1,-2.2611079E-1,6.0223395E-1,2.9248947E-1,-2.6366493E-1,-3.414865E-1,3.6231544E-2,-3.1757918E-1,-2.3246934E-1,5.879406E-2,-3.4425107E-1,-3.8850892E-1,3.991874E-1,-9.322183E-1,-1.5837991E-1,-3.5558304E-1,3.052904E-1,-4.4145292E-1,4.9064288E-1,-4.870928E-1,9.230533E-1,3.0271705E-2,-3.3344308E-1,9.807577E-2,4.8090184E-1,-2.488959E-1,6.117956E-1,-9.379983E-2,3.3111578E-1,-2.734818E-1,3.2810724E-1,-1.8079767E-1,3.2736424E-1,8.073747E-3,3.2986978E-1,-3.0715895E-1,-1.2314347E-1,-3.117051E-1,4.96128E-1,2.3443284E-3,-3.615191E-1,1.4105274E-1,-3.4078768E-1,3.1840938E-1,-3.158856E-1,-4.5624757E-1,2.0695157E-1,6.102038E-2,3.257353E-1,4.5166895E-2,-3.5525241E-1,1.5488258E-1,-1.5975653E-1,1.4410271E-1,2.1114084E-1],"categories":[],"categories_nodes":[],"categories_segments":[],"categories_sizes":[],"default_left":[0,0,0,0,0,0,0,0,0,0,0,0,0,0,0,0,0,0,0,0,0,0,0,0,0,0,0,0,0,0,0,0,0,0,0,0,0,0,0,0,0,0,0,0,0,0,0,0,0,0,0,0,0,0,0,0,0,0,0,0,0,0,0,0,0,0,0,0,0,0,0,0,0,0,0,0,0,0,0,0,0],"id":5,"left_children":[1,3,5,7,9,11,13,-1,15,17,19,21,23,25,27,-1,29,31,33,35,37,39,41,43,45,47,49,-1,51,-1,-1,-1,-1,-1,53,55,-1,57,59,61,63,65,67,-1,69,71,73,-1,-1,75,77,-1,79,-1,-1,-1,-1,-1,-1,-1,-1,-1,-1,-1,-1,-1,-1,-1,-1,-1,-1,-1,-1,-1,-1,-1,-1,-1,-1,-1,-1],"loss_changes":[1.8352225E2,2.724588E1,7.711366E1,1.0648193E0,2.2846317E1,1.94166E1,2.1101593E1,0E0,1.6929321E0,9.814835E0,1.6026445E1,2.1779167E1,1.56497135E1,1.1670244E1,5.182564E0,0E0,5.01849E0,2.2559319E0,5.668709E0,7.2065487E0,9.091398E0,4.883278E0,1.0030237E1,1.4339573E1,1.7552124E1,1.6395555E0,9.346046E0,0E0,4.7703094E0,0E0,0E0,0E0,0E0,0E0,4.1541724E0,8.91373E0,0E0,7.375176E0,1.2453542E1,2.7584648E0,1.8980415E1,1.9917095E1,9.029092E0,0E0,7.085074E0,1.6238861E1,3.5089226E0,0E0,0E0,1.1377243E1,4.020376E0,0E0,3.4095688E0,0E0,0E0,0E0,0E0,0E0,0E0,0E0,0E0,0E0,0E0,0E0,0E0,0E0,0E0,0E0,0E0,0E0,0E0,0E0,0E0,0E0,0E0,0E0,0E0,0E0,0E0,0E0,0E0],"parents":[2147483647,0,0,1,1,2,2,3,3,4,4,5,5,6,6,8,8,9,9,10,10,11,11,12,12,13,13,14,14,16,16,17,17,18,18,19,19,20,20,21,21,22,22,23,23,24,24,25,25,26,26,28,28,34,34,35,35,37,37,38,38,39,39,40,40,41,41,42,42,44,44,45,45,46,46,49,49,50,50,52,52],"right_children":[2,4,6,8,10,12,14,-1,16,18,20,22,24,26,28,-1,30,32,34,36,38,40,42,44,46,48,50,-1,52,-1,-1,-1,-1,-1,54,56,-1,58,60,62,64,66,68,-1,70,72,74,-1,-1,76,78,-1,80,-1,-1,-1,-1,-1,-1,-1,-1,-1,-1,-1,-1,-1,-1,-1,-1,-1,-1,-1,-1,-1,-1,-1,-1,-1,-1,-1,-1],"split_conditions":[5.3060398E-2,3.5531916E-2,8.334695E-3,1.8729642E-2,2.43562E3,1.4057973E-1,8.700305E-2,-3.3178163E-1,3.989759E4,4.71754E-2,-4.5552236E-4,-1.9534813E-2,1.8298629E9,1.68991E5,5.7980355E4,-2.8802148E-1,4.599306E4,4.2351987E12,-3.486886E-3,1.680666E6,4.2900375E4,4.560133E3,6.417967E-1,3.14471E3,9.697E-2,7.464849E-6,4.4792473E-2,-2.2611079E-1,7.19E-6,2.9248947E-1,-2.6366493E-1,-3.414865E-1,3.6231544E-2,-3.1757918E-1,5.555773E12,1.495561E6,-3.4425107E-1,1.1302813E5,4.286903E4,1.17463455E-1,8.272785E4,1.459E-1,6.84298E6,-4.4145292E-1,5.381949E6,8.916873E6,-8.301966E-2,3.0271705E-2,-3.3344308E-1,5.878911E6,7.079944E-2,-2.488959E-1,1.6366008E9,-9.379983E-2,3.3111578E-1,-2.734818E-1,3.2810724E-1,-1.8079767E-1,3.2736424E-1,8.073747E-3,3.2986978E-1,-3.0715895E-1,-1.2314347E-1,-3.117051E-1,4.96128E-1,2.3443284E-3,-3.615191E-1,1.4105274E-1,-3.4078768E-1,3.1840938E-1,-3.158856E-1,-4.5624757E-1,2.0695157E-1,6.102038E-2,3.257353E-1,4.5166895E-2,-3.5525241E-1,1.5488258E-1,-1.5975653E-1,1.4410271E-1,2.1114084E-1],"split_indices":[6,6,7,7,3,6,6,0,0,6,7,7,4,5,4,0,0,4,7,5,4,0,0,0,2,0,7,0,0,0,0,0,0,0,4,5,0,0,0,6,4,0,5,0,5,5,7,0,0,5,7,0,4,0,0,0,0,0,0,0,0,0,0,0,0,0,0,0,0,0,0,0,0,0,0,0,0,0,0,0,0],"split_type":[0,0,0,0,0,0,0,0,0,0,0,0,0,0,0,0,0,0,0,0,0,0,0,0,0,0,0,0,0,0,0,0,0,0,0,0,0,0,0,0,0,0,0,0,0,0,0,0,0,0,0,0,0,0,0,0,0,0,0,0,0,0,0,0,0,0,0,0,0,0,0,0,0,0,0,0,0,0,0,0,0],"sum_hessian":[1.1164333E3,2.9811063E2,8.183227E2,1.14887764E2,1.8322287E2,2.2945844E2,5.8886426E2,1.0643542E2,8.452345E0,9.342747E1,8.97954E1,1.735334E2,5.5925037E1,2.7647812E2,3.123861E2,4.5153193E0,3.9370258E0,4.8561848E1,4.486562E1,2.2719536E1,6.707587E1,7.529728E1,9.823612E1,1.3591389E1,4.233365E1,7.5769567E0,2.6890118E2,2.0375428E0,3.1034857E2,1.6031228E0,2.333903E0,4.7283283E1,1.2785641E0,1.0319254E1,3.4546364E1,6.883103E0,1.5836433E1,2.0198849E1,4.6877014E1,6.54803E1,9.816972E0,6.3488945E1,3.474718E1,7.8175426E0,5.773846E0,1.1485072E1,3.0848577E1,1.1265483E0,6.4504085E0,1.6542035E2,1.0348082E2,1.4897172E0,3.0885886E2,3.3312954E1,1.2334099E0,3.6137252E0,3.269378E0,1.8162971E1,2.0358782E0,3.1285917E1,1.5591099E1,5.4878395E1,1.0601909E1,6.893571E0,2.923401E0,4.516059E1,1.8328354E1,3.1784649E1,2.9625335E0,4.443379E0,1.3304672E0,5.958956E0,5.5261164E0,6.1040955E0,2.4744484E1,1.5976404E2,5.6563125E0,1.0046468E2,3.016137E0,1.2973021E2,1.7912863E2],"tree_param":{"num_deleted":"0","num_feature":"8","num_nodes":"81","size_leaf_vector":"1"}},{"base_weights":[-2.584818E-2,-8.511432E-1,1.1872119E-1,-9.5038265E-1,3.914212E-1,-3.5393974E-1,2.5479472E-1,-1.0656104E0,-6.8331164E-1,9.4387674E-1,-6.792078E-1,-5.668285E-1,7.1772404E-2,1.07359365E-1,5.0398815E-1,-3.250485E-1,8.3427966E-2,-1.4602922E-1,-9.2690843E-1,2.0363877E-2,3.3234796E-1,5.8110207E-2,-3.5042146E-1,-6.705635E-1,3.6768365E-1,-2.979697E-1,5.072106E-1,-4.4040937E-2,2.6940066E-1,1.727518E-2,5.404429E-1,-7.856473E-1,5.603065E-1,-3.0977052E-1,1.3547514E-1,-8.169597E-1,-1.0138456E-1,1.0988979E0,-3.8112494E-1,-3.4952438E-1,-4.5463283E-2,-5.628898E-1,6.566715E-1,-1.2990246E0,8.085117E-2,6.1490893E-1,1.10265695E-1,-2.5456852E-1,2.5004488E-1,-2.3614012E-1,5.5245E-1,7.317624E-2,-2.922194E-1,2.8325075E-1,-2.1290094E-1,-2.0047686E-1,2.642992E-1,-3.0823553E-1,-1.6115412E-1,-2.906963E-1,2.3828697E-1,-5.4141026E-2,4.3063077E-1,-2.3270635E-1,8.634473E-2,-3.2145047E-1,1.04904406E-1,2.542117E-1,4.049464E-2,-4.9680224E-1,-1.0168181E-1,-4.0246746E-1,3.3598166E-2,6.978616E-2,2.9594672E-1,-3.1519398E-2,1.554329E-1,2.502953E-1,-2.0869711E-1,1.5256713E-1,2.7346194E-1],"categories":[],"categories_nodes":[],"categories_segments":[],"categories_sizes":[],"default_left":[0,0,0,0,0,0,0,0,0,0,0,0,0,0,0,0,0,0,0,0,0,0,0,0,0,0,0,0,0,0,0,0,0,0,0,0,0,0,0,0,0,0,0,0,0,0,0,0,0,0,0,0,0,0,0,0,0,0,0,0,0,0,0,0,0,0,0,0,0,0,0,0,0,0,0,0,0,0,0,0,0],"id":6,"left_children":[1,3,5,7,9,11,13,15,17,19,21,23,25,27,29,-1,-1,31,33,-1,-1,-1,-1,35,37,39,41,43,45,47,49,51,53,-1,55,57,59,61,-1,-1,63,65,67,69,71,73,75,77,-1,-1,79,-1,-1,-1,-1,-1,-1,-1,-1,-1,-1,-1,-1,-1,-1,-1,-1,-1,-1,-1,-1,-1,-1,-1,-1,-1,-1,-1,-1,-1,-1],"loss_changes":[1.19781715E2,1.8824799E1,5.5045063E1,3.545395E0,7.606246E0,1.7388638E1,2.434216E1,2.5897217E0,5.7075653E0,1.1004944E0,2.1848536E0,1.2627636E1,1.0567766E1,1.0278091E1,4.365406E0,0E0,0E0,7.2682834E0,3.5668907E0,0E0,0E0,0E0,0E0,9.52549E0,1.7454412E1,7.7459083E0,5.1806397E0,3.414761E1,1.1053467E1,4.253439E0,4.0907593E0,1.8569422E0,4.4559E0,0E0,2.7732332E0,4.8412056E0,1.9989023E1,4.4807463E0,0E0,0E0,7.1900864E0,2.3356447E0,2.5573835E0,6.1963425E0,8.942364E0,8.800041E0,1.2323404E1,7.510624E0,0E0,0E0,3.1281662E0,0E0,0E0,0E0,0E0,0E0,0E0,0E0,0E0,0E0,0E0,0E0,0E0,0E0,0E0,0E0,0E0,0E0,0E0,0E0,0E0,0E0,0E0,0E0,0E0,0E0,0E0,0E0,0E0,0E0,0E0],"parents":[2147483647,0,0,1,1,2,2,3,3,4,4,5,5,6,6,7,7,8,8,9,9,10,10,11,11,12,12,13,13,14,14,17,17,18,18,23,23,24,24,25,25,26,26,27,27,28,28,29,29,30,30,31,31,32,32,34,34,35,35,36,36,37,37,40,40,41,41,42,42,43,43,44,44,45,45,46,46,47,47,50,50],"right_children":[2,4,6,8,10,12,14,16,18,20,22,24,26,28,30,-1,-1,32,34,-1,-1,-1,-1,36,38,40,42,44,46,48,50,52,54,-1,56,58,60,62,-1,-1,64,66,68,70,72,74,76,78,-1,-1,80,-1,-1,-1,-1,-1,-1,-1,-1,-1,-1,-1,-1,-1,-1,-1,-1,-1,-1,-1,-1,-1,-1,-1,-1,-1,-1,-1,-1,-1,-1],"split_conditions":[4.3246944E-2,5.263893E6,-1.0452962E-3,1.747686E6,5.495509E6,1.1227067E-1,5.277244E-2,3.5562864E12,2.336538E6,1.6217522E-2,8.7952E4,5.280611E12,-4.7768336E-2,9.752762E8,4.40577E5,-3.250485E-1,8.3427966E-2,1.260591E-2,1.186491E5,2.0363877E-2,3.3234796E-1,5.8110207E-2,-3.5042146E-1,3.413482E3,2.2104156E-5,1.551856E6,2.919276E-5,5.08E-1,1.7250953E9,1.2897661E-1,6.462035E-2,1.837198E6,5.3737926E4,-3.0977052E-1,2.342864E4,-1.6264867E-2,1.034511E5,1.48843E5,-3.8112494E-1,-3.4952438E-1,1.8925463E9,3.545694E13,1.3787E0,8.3259974E8,2.4602814E4,1.4293362E9,4.7842266E12,4.109679E8,2.5004488E-1,-2.3614012E-1,7.770981E6,7.317624E-2,-2.922194E-1,2.8325075E-1,-2.1290094E-1,-2.0047686E-1,2.642992E-1,-3.0823553E-1,-1.6115412E-1,-2.906963E-1,2.3828697E-1,-5.4141026E-2,4.3063077E-1,-2.3270635E-1,8.634473E-2,-3.2145047E-1,1.04904406E-1,2.542117E-1,4.049464E-2,-4.9680224E-1,-1.0168181E-1,-4.0246746E-1,3.3598166E-2,6.978616E-2,2.9594672E-1,-3.1519398E-2,1.554329E-1,2.502953E-1,-2.0869711E-1,1.5256713E-1,2.7346194E-1],"split_indices":[6,5,7,5,5,6,7,4,5,7,0,4,7,4,5,0,0,7,1,0,0,0,0,3,0,5,1,2,4,6,6,5,0,0,4,7,4,5,0,0,4,4,3,4,4,4,4,4,0,0,5,0,0,0,0,0,0,0,0,0,0,0,0,0,0,0,0,0,0,0,0,0,0,0,0,0,0,0,0,0,0],"split_type":[0,0,0,0,0,0,0,0,0,0,0,0,0,0,0,0,0,0,0,0,0,0,0,0,0,0,0,0,0,0,0,0,0,0,0,0,0,0,0,0,0,0,0,0,0,0,0,0,0,0,0,0,0,0,0,0,0,0,0,0,0,0,0,0,0,0,0,0,0,0,0,0,0,0,0,0,0,0,0,0,0],"sum_hessian":[1.00208673E3,1.4864395E2,8.534428E2,1.3786804E2,1.0775914E1,1.9041653E2,6.6302625E2,9.422478E1,4.3643257E1,7.186168E0,3.5897458E0,1.2671687E2,6.3699657E1,4.1746426E2,2.45562E2,9.317823E1,1.0465491E0,1.4113558E1,2.9529701E1,1.3558382E0,5.83033E0,1.505435E0,2.0843108E0,1.14310356E2,1.2406517E1,3.4619244E1,2.9080414E1,2.1619484E2,2.0126944E2,1.7213644E1,2.2834834E2,7.347651E0,6.765907E0,2.6884003E1,2.645699E0,9.0577866E1,2.3732487E1,8.805213E0,3.6013033E0,6.992569E0,2.7626673E1,3.224894E0,2.585552E1,1.8716827E1,1.9747801E2,6.2565453E1,1.3870398E2,1.3429097E1,3.784547E0,1.4681315E0,2.2688022E2,1.0910813E0,6.2565694E0,5.3925133E0,1.3733935E0,1.3230201E0,1.322679E0,5.016435E1,4.041352E1,1.20135765E1,1.171891E1,1.930407E0,6.874806E0,8.241611E0,1.9385063E1,1.9589422E0,1.2659519E0,1.8477047E1,7.378473E0,1.3115363E1,5.6014643E0,3.3294897E0,1.9414851E2,3.1639841E1,3.0925613E1,9.126237E1,4.744162E1,3.6145637E0,9.814534E0,2.0432147E2,2.2558746E1],"tree_param":{"num_deleted":"0","num_feature":"8","num_nodes":"81","size_leaf_vector":"1"}},{"base_weights":[-2.6089929E-2,-7.958016E-1,8.829297E-2,-8.959335E-1,3.2681957E-1,-3.3692613E-1,1.8565285E-1,-1.0319762E0,-6.0753995E-1,8.330419E-1,-5.850242E-1,-7.5421095E-1,-8.497155E-2,7.528053E-2,4.372317E-1,-3.1631127E-1,8.3812416E-2,-3.138817E-1,-2.789879E-1,1.679552E-2,3.020533E-1,4.7363583E-2,-3.1327224E-1,-3.3126274E-1,-4.508537E-1,-3.5348493E-1,2.6735097E-1,5.270758E-3,4.0117678E-1,3.9876428E-1,9.435871E-1,-3.077708E-1,3.9448994E-1,-3.2732093E-1,1.4471748E-1,-7.277846E-1,2.4915088E-2,-4.0845197E-1,4.946109E-1,6.7385346E-2,-1.3255613E0,-1.1163153E-1,9.8471254E-1,2.3910114E-1,5.1109666E-1,3.0227718E-1,2.9176224E-2,-1.294471E-1,2.833049E-1,-2.9680723E-1,1.138559E-1,4.6776406E-2,-2.4063359E-1,1.324967E-1,-2.4949656E-1,-2.0205718E-1,1.5671352E-1,-5.6756463E-2,2.1997152E-1,-4.5806083E-1,3.0528435E-2,-6.790515E-1,1.4896682E-1,-6.1772513E-1,4.5741275E-2,3.5173517E-1,9.577251E-2,-5.943182E-1,9.031717E-2,2.1357292E-1,7.770303E-2],"categories":[],"categories_nodes":[],"categories_segments":[],"categories_sizes":[],"default_left":[0,0,0,0,0,0,0,0,0,0,0,0,0,0,0,0,0,0,0,0,0,0,0,0,0,0,0,0,0,0,0,0,0,0,0,0,0,0,0,0,0,0,0,0,0,0,0,0,0,0,0,0,0,0,0,0,0,0,0,0,0,0,0,0,0,0,0,0,0,0,0],"id":7,"left_children":[1,3,5,7,9,11,13,15,17,19,21,23,25,27,29,-1,-1,-1,31,-1,-1,-1,-1,-1,33,35,37,39,41,43,45,-1,47,-1,49,51,53,55,57,59,61,63,65,67,69,-1,-1,-1,-1,-1,-1,-1,-1,-1,-1,-1,-1,-1,-1,-1,-1,-1,-1,-1,-1,-1,-1,-1,-1,-1,-1],"loss_changes":[8.0718956E1,1.3626259E1,3.311627E1,3.6561127E0,5.3092237E0,1.5612316E1,1.8024406E1,2.4309082E0,5.1024265E0,9.065137E-1,1.6374532E0,5.4487667E0,8.996385E0,1.0338356E1,3.4822617E0,0E0,0E0,0E0,1.1854574E1,0E0,0E0,0E0,0E0,0E0,1.2242289E1,7.6423955E0,6.5398645E0,3.1012522E1,2.4088272E1,3.2109032E0,6.1998844E-1,0E0,6.171646E0,0E0,4.982693E0,1.9047537E0,1.0267962E1,3.0493178E0,5.2515826E0,1.9794651E1,2.9715492E1,2.2711864E1,4.3210144E0,1.1412156E1,5.2934685E0,0E0,0E0,0E0,0E0,0E0,0E0,0E0,0E0,0E0,0E0,0E0,0E0,0E0,0E0,0E0,0E0,0E0,0E0,0E0,0E0,0E0,0E0,0E0,0E0,0E0,0E0],"parents":[2147483647,0,0,1,1,2,2,3,3,4,4,5,5,6,6,7,7,8,8,9,9,10,10,11,11,12,12,13,13,14,14,18,18,24,24,25,25,26,26,27,27,28,28,29,29,30,30,32,32,34,34,35,35,36,36,37,37,38,38,39,39,40,40,41,41,42,42,43,43,44,44],"right_children":[2,4,6,8,10,12,14,16,18,20,22,24,26,28,30,-1,-1,-1,32,-1,-1,-1,-1,-1,34,36,38,40,42,44,46,-1,48,-1,50,52,54,56,58,60,62,64,66,68,70,-1,-1,-1,-1,-1,-1,-1,-1,-1,-1,-1,-1,-1,-1,-1,-1,-1,-1,-1,-1,-1,-1,-1,-1,-1,-1],"split_conditions":[4.3246944E-2,5.263893E6,-5.7926043E-3,1.747686E6,5.495509E6,1.569411E6,1.0110804E-1,3.687267E12,2.6180816E4,1.6217522E-2,8.7952E4,6.8022944E-2,1.2897661E-1,4.788E3,1.8957527E-1,-3.1631127E-1,8.3812416E-2,-3.138817E-1,9.078629E3,1.679552E-2,3.020533E-1,4.7363583E-2,-3.1327224E-1,-3.3126274E-1,-3.15367E-2,-2.2499159E-2,-8.301966E-2,3.2118843E3,5.7980355E4,1.6496E-1,1.3582E0,-3.077708E-1,4.2900375E4,-3.2732093E-1,7.3747814E8,1.933E-5,2.773236E8,3.5703385E-1,1.2614902E9,3.8704378E5,8.8745775E5,1.894791E6,6.33276E4,1.34236E9,1.4323E0,3.0227718E-1,2.9176224E-2,-1.294471E-1,2.833049E-1,-2.9680723E-1,1.138559E-1,4.6776406E-2,-2.4063359E-1,1.324967E-1,-2.4949656E-1,-2.0205718E-1,1.5671352E-1,-5.6756463E-2,2.1997152E-1,-4.5806083E-1,3.0528435E-2,-6.790515E-1,1.4896682E-1,-6.1772513E-1,4.5741275E-2,3.5173517E-1,9.577251E-2,-5.943182E-1,9.031717E-2,2.1357292E-1,7.770303E-2],"split_indices":[6,5,7,5,5,5,6,4,4,7,0,6,6,1,7,0,0,0,0,0,0,0,0,0,7,7,7,0,4,0,1,0,4,0,4,0,4,6,4,4,4,5,0,4,3,0,0,0,0,0,0,0,0,0,0,0,0,0,0,0,0,0,0,0,0,0,0,0,0,0,0],"split_type":[0,0,0,0,0,0,0,0,0,0,0,0,0,0,0,0,0,0,0,0,0,0,0,0,0,0,0,0,0,0,0,0,0,0,0,0,0,0,0,0,0,0,0,0,0,0,0,0,0,0,0,0,0,0,0,0,0,0,0,0,0,0,0,0,0,0,0,0,0,0,0],"sum_hessian":[9.1502686E2,1.1761413E2,7.974127E2,1.0816803E2,9.446099E0,1.4810477E2,6.493079E2,7.174548E1,3.6422546E1,6.129594E0,3.316506E0,5.5007854E1,9.309692E1,4.5221292E2,1.9709502E2,7.073349E1,1.0119915E0,1.4660774E1,2.176177E1,1.3620578E0,4.7675357E0,1.5175966E0,1.7989093E0,2.4314758E1,3.0693094E1,5.2830353E1,4.0266567E1,3.7308264E2,7.913029E1,1.8484036E2,1.2254655E1,1.0070206E1,1.16915655E1,1.43911705E1,1.6301924E1,2.6094898E1,2.6735453E1,9.932625E0,3.0333944E1,3.573531E2,1.5729554E1,4.254801E1,3.658228E1,7.7629906E1,1.0721046E2,1.121592E1,1.0387349E0,4.7586126E0,6.9329524E0,2.2450314E0,1.4056892E1,1.9393593E0,2.415554E1,1.8311089E1,8.424362E0,7.9462137E0,1.9864113E0,7.9008484E0,2.2433096E1,6.6263714E0,3.507267E2,1.0224304E1,5.50525E0,4.2694182E0,3.827859E1,2.79386E1,8.643679E0,1.2666047E0,7.6363304E1,5.8658676E1,4.8551777E1],"tree_param":{"num_deleted":"0","num_feature":"8","num_nodes":"71","size_leaf_vector":"1"}},{"base_weights":[-2.6324581E-2,-7.5026864E-1,6.371543E-2,-8.531947E-1,2.7261132E-1,-7.139005E-2,2.8901565E-1,-1.0034506E0,-5.562836E-1,-2.2402038E-1,6.48792E-1,-4.1403642E-1,-3.0350669E-3,2.6314646E-1,8.9502823E-1,-3.094482E-1,6.976767E-2,-3.004409E-1,-2.48656E-1,2.9592857E-1,-7.141072E-2,-5.5019206E-1,6.649417E-1,-8.2192415E-1,3.237529E-2,2.9309532E-1,-3.7662464E-1,2.9239008E-1,1.3707527E-2,-2.917838E-1,3.169342E-1,-1.2629336E0,-2.6873872E-1,1.0483823E0,-1.5956949E-1,-4.522157E-1,-3.489292E-1,-4.3454245E-2,5.283763E-1,2.6851892E-1,3.1125692E-1,4.4566995E-1,-3.0805936E0,-1.0327937E-1,2.3117758E-1,-1.3263598E-1,-4.0583062E-1,-2.2368419E-1,1.4035636E-1,3.3663177E-1,1.0153691E-1,-2.6576403E-1,7.6439984E-2,-3.4626684E-1,-3.548069E-3,4.8249085E-2,3.8730288E-1,8.563674E-2,-2.3244637E-1,-1.4412235E-1,1.933334E-1,-2.4251199E-1,-1.143092E0],"categories":[],"categories_nodes":[],"categories_segments":[],"categories_sizes":[],"default_left":[0,0,0,0,0,0,0,0,0,0,0,0,0,0,0,0,0,0,0,0,0,0,0,0,0,0,0,0,0,0,0,0,0,0,0,0,0,0,0,0,0,0,0,0,0,0,0,0,0,0,0,0,0,0,0,0,0,0,0,0,0,0,0],"id":8,"left_children":[1,3,5,7,9,11,13,15,17,-1,19,21,23,25,27,-1,-1,-1,29,-1,-1,31,33,35,37,39,41,-1,-1,-1,43,45,47,49,-1,-1,51,53,55,57,-1,59,61,-1,-1,-1,-1,-1,-1,-1,-1,-1,-1,-1,-1,-1,-1,-1,-1,-1,-1,-1,-1],"loss_changes":[5.521894E1,1.0097752E1,2.2962381E1,3.2507515E0,4.0600696E0,1.1052676E1,4.196909E0,2.1617393E0,3.987255E0,0E0,2.4344242E0,1.1895993E1,1.1465116E1,5.333044E0,7.0992184E-1,0E0,0E0,0E0,8.343035E0,0E0,0E0,1.3750576E1,4.8012466E0,4.78751E0,1.4280788E1,4.4955463E0,2.9448076E1,0E0,0E0,0E0,3.7959452E0,8.4819984E-1,1.8482487E1,4.3735504E-3,0E0,0E0,3.79108E0,1.1570194E1,1.3904317E1,4.708845E0,0E0,2.252743E0,2.011526E0,0E0,0E0,0E0,0E0,0E0,0E0,0E0,0E0,0E0,0E0,0E0,0E0,0E0,0E0,0E0,0E0,0E0,0E0,0E0,0E0],"parents":[2147483647,0,0,1,1,2,2,3,3,4,4,5,5,6,6,7,7,8,8,10,10,11,11,12,12,13,13,14,14,18,18,21,21,22,22,23,23,24,24,25,25,26,26,30,30,31,31,32,32,33,33,36,36,37,37,38,38,39,39,41,41,42,42],"right_children":[2,4,6,8,10,12,14,16,18,-1,20,22,24,26,28,-1,-1,-1,30,-1,-1,32,34,36,38,40,42,-1,-1,-1,44,46,48,50,-1,-1,52,54,56,58,-1,60,62,-1,-1,-1,-1,-1,-1,-1,-1,-1,-1,-1,-1,-1,-1,-1,-1,-1,-1,-1,-1],"split_conditions":[4.3246944E-2,5.263893E6,4.255413E-2,1.747686E6,1.4545455E-2,5.97582E5,2.1546205E13,3.687267E12,2.6180816E4,-2.2402038E-1,5.495509E6,7.3423866E12,3.988722E4,5.555773E12,2.371E-5,-3.094482E-1,6.976767E-2,-3.004409E-1,9.078629E3,2.9592857E-1,-7.141072E-2,1.1944863E-5,9.945338E-2,7.133653E4,4.788E3,4.7842266E12,2.2104156E-5,2.9239008E-1,1.3707527E-2,-2.917838E-1,4.2900375E4,4.798433E-2,1.376684E9,9.95E-6,-1.5956949E-1,-4.522157E-1,2.3669837E-2,3.7506525E5,1.1650303E5,4.0080132E12,3.1125692E-1,7.3423866E12,1.0542868E-1,-1.0327937E-1,2.3117758E-1,-1.3263598E-1,-4.0583062E-1,-2.2368419E-1,1.4035636E-1,3.3663177E-1,1.0153691E-1,-2.6576403E-1,7.6439984E-2,-3.4626684E-1,-3.548069E-3,4.8249085E-2,3.8730288E-1,8.563674E-2,-2.3244637E-1,-1.4412235E-1,1.933334E-1,-2.4251199E-1,-1.143092E0],"split_indices":[6,5,7,5,7,5,4,4,4,0,5,4,4,4,2,0,0,0,0,0,0,2,6,3,1,4,0,0,0,0,4,6,4,2,0,0,7,4,4,4,0,4,6,0,0,0,0,0,0,0,0,0,0,0,0,0,0,0,0,0,0,0,0],"split_type":[0,0,0,0,0,0,0,0,0,0,0,0,0,0,0,0,0,0,0,0,0,0,0,0,0,0,0,0,0,0,0,0,0,0,0,0,0,0,0,0,0,0,0,0,0,0,0,0,0,0,0,0,0,0,0,0,0,0,0,0,0,0,0],"sum_hessian":[8.453917E2,9.270311E1,7.526886E2,8.437851E1,8.324598E0,4.7095486E2,2.8173373E2,5.4445835E1,2.9932674E1,1.9784644E0,6.346134E0,7.748497E1,3.934699E2,2.715751E2,1.015865E1,5.339973E1,1.0461047E0,1.13099375E1,1.8622738E1,4.514895E0,1.8312391E0,6.923795E1,8.247019E0,1.5388511E1,3.780814E2,2.599483E2,1.1626789E1,9.153228E0,1.005423E0,7.852228E0,1.077051E1,1.861383E1,5.0624126E1,6.339899E0,1.9071195E0,5.3901877E0,9.998323E0,3.2873602E2,4.934537E1,2.529579E2,6.9904E0,9.5559435E0,2.0708454E0,4.4808617E0,6.2896476E0,2.420394E0,1.6193436E1,3.0722157E1,1.9901968E1,5.2174845E0,1.1224145E0,5.044472E0,4.953851E0,8.118423E0,3.2061758E2,3.411484E1,1.5230531E1,2.4963196E2,3.325953E0,1.4382747E0,8.117669E0,1.0157486E0,1.0550967E0],"tree_param":{"num_deleted":"0","num_feature":"8","num_nodes":"63","size_leaf_vector":"1"}},{"base_weights":[-2.4432546E-2,-7.074834E-1,4.5606267E-2,-8.681682E-1,-8.379677E-2,-2.4787788E-1,1.2171481E-1,-2.9682592E-1,-5.72196E-1,-2.5558752E-1,2.1937867E-1,-5.548908E-1,-9.548203E-2,-8.120556E-1,1.3889506E-1,-8.244762E-1,-1.4966732E-1,-2.121085E-1,4.4920197E-1,-6.951235E-1,2.7803317E-1,-2.8394648E-1,1.7616057E-1,-6.761914E-2,-1.0892932E0,6.8271965E-2,3.0701888E-1,-2.884164E-1,9.689995E-2,6.789857E-1,-2.716864E-1,2.7677503E-1,2.1891716E-1,-3.5397524E-1,-9.879384E-1,-5.29678E-1,7.984047E-1,-7.743294E-1,-6.131945E-2,-8.908194E-1,3.2695445E-1,-2.3836744E-1,2.1500665E-1,-6.1050132E-2,-3.5802007E-1,1.9222852E-2,5.1147926E-1,1.2349531E-1,4.223902E-1,1.0477047E-2,2.604632E-1,-1.9640344E-1,1.8793644E-1,-2.041713E-1,1.0205893E-1,-3.321852E-1,-1.13217175E-1,-1.5395361E-2,-2.1787278E-1,-6.506097E-2,3.4151706E-1,-3.0386224E-1,-5.0403185E-2,6.995215E-2,-1.8071842E-1,-3.6347854E-1,6.454611E-2,-1.20889276E-1,1.9293024E-1,3.207787E-2,-1.5557247E-1,3.368249E-1,-2.8515962E-1,7.114293E-2,-4.367017E-1,1.7537186E-1,5.718973E-2],"categories":[],"categories_nodes":[],"categories_segments":[],"categories_sizes":[],"default_left":[0,0,0,0,0,0,0,0,0,0,0,0,0,0,0,0,0,0,0,0,0,0,0,0,0,0,0,0,0,0,0,0,0,0,0,0,0,0,0,0,0,0,0,0,0,0,0,0,0,0,0,0,0,0,0,0,0,0,0,0,0,0,0,0,0,0,0,0,0,0,0,0,0,0,0,0,0],"id":9,"left_children":[1,3,5,7,9,11,13,-1,15,-1,17,19,21,23,25,27,29,-1,31,33,35,37,39,41,43,45,47,-1,-1,49,-1,-1,51,53,55,57,59,61,63,65,67,-1,-1,-1,-1,69,71,73,75,-1,-1,-1,-1,-1,-1,-1,-1,-1,-1,-1,-1,-1,-1,-1,-1,-1,-1,-1,-1,-1,-1,-1,-1,-1,-1,-1,-1],"loss_changes":[3.8219345E1,7.3730545E0,1.6222607E1,1.5501099E0,3.9892943E0,6.946906E0,9.3582945E0,0E0,1.9561706E0,0E0,2.979396E0,5.965808E0,5.230393E0,2.10537E0,6.7084026E0,2.194766E0,5.9490843E0,0E0,9.5666766E-1,3.9042683E0,3.7164109E0,6.516395E0,7.0592966E0,2.810784E0,4.604683E-1,8.6942835E0,3.4915247E0,0E0,0E0,5.344155E-1,0E0,0E0,3.4225292E0,5.044112E0,1.2112331E0,3.0795264E-1,2.0295455E0,2.5325775E0,6.902516E0,2.2038617E0,8.932965E0,0E0,0E0,0E0,0E0,1.7107924E1,3.668649E1,1.2192847E1,3.7356129E0,0E0,0E0,0E0,0E0,0E0,0E0,0E0,0E0,0E0,0E0,0E0,0E0,0E0,0E0,0E0,0E0,0E0,0E0,0E0,0E0,0E0,0E0,0E0,0E0,0E0,0E0,0E0,0E0],"parents":[2147483647,0,0,1,1,2,2,3,3,4,4,5,5,6,6,8,8,10,10,11,11,12,12,13,13,14,14,15,15,16,16,18,18,19,19,20,20,21,21,22,22,23,23,24,24,25,25,26,26,29,29,32,32,33,33,34,34,35,35,36,36,37,37,38,38,39,39,40,40,45,45,46,46,47,47,48,48],"right_children":[2,4,6,8,10,12,14,-1,16,-1,18,20,22,24,26,28,30,-1,32,34,36,38,40,42,44,46,48,-1,-1,50,-1,-1,52,54,56,58,60,62,64,66,68,-1,-1,-1,-1,70,72,74,76,-1,-1,-1,-1,-1,-1,-1,-1,-1,-1,-1,-1,-1,-1,-1,-1,-1,-1,-1,-1,-1,-1,-1,-1,-1,-1,-1,-1],"split_conditions":[4.3246944E-2,3.902263E6,-1.0452962E-3,1.0919198E-2,3.117693E-3,1.495561E6,1.57173E5,-2.9682592E-1,3.0785543E4,-2.5558752E-1,3.508772E-2,4.2351987E12,1.2573214E-1,8.1E-6,1.0110804E-1,2.4013706E12,5.3737926E4,-2.121085E-1,4.194563E6,6.90708E5,-1.3023443E-2,-2.5485024E-2,2.919276E-5,3.8399425E12,4.8617933E-2,3.4558352E12,1.6366008E9,-2.884164E-1,9.689995E-2,1.87279E6,-2.716864E-1,2.7677503E-1,5.162548E6,9.132614E-2,1.14118725E-1,7.44625E-2,6.4624E5,4.560133E3,2.9930646E8,3.545694E13,1.8925463E9,-2.3836744E-1,2.1500665E-1,-6.1050132E-2,-3.5802007E-1,2.1201885E9,1.796E-5,1.376684E9,1.2092277E10,1.0477047E-2,2.604632E-1,-1.9640344E-1,1.8793644E-1,-2.041713E-1,1.0205893E-1,-3.321852E-1,-1.13217175E-1,-1.5395361E-2,-2.1787278E-1,-6.506097E-2,3.4151706E-1,-3.0386224E-1,-5.0403185E-2,6.995215E-2,-1.8071842E-1,-3.6347854E-1,6.454611E-2,-1.20889276E-1,1.9293024E-1,3.207787E-2,-1.5557247E-1,3.368249E-1,-2.8515962E-1,7.114293E-2,-4.367017E-1,1.7537186E-1,5.718973E-2],"split_indices":[6,5,7,7,7,5,5,0,0,0,6,4,6,3,6,4,0,0,5,5,7,7,1,4,6,4,4,0,0,5,0,0,5,6,6,6,5,0,4,4,4,0,0,0,0,4,1,4,4,0,0,0,0,0,0,0,0,0,0,0,0,0,0,0,0,0,0,0,0,0,0,0,0,0,0,0,0],"split_type":[0,0,0,0,0,0,0,0,0,0,0,0,0,0,0,0,0,0,0,0,0,0,0,0,0,0,0,0,0,0,0,0,0,0,0,0,0,0,0,0,0,0,0,0,0,0,0,0,0,0,0,0,0,0,0,0,0,0,0,0,0,0,0,0,0,0,0,0,0,0,0,0,0,0,0,0,0],"sum_hessian":[7.9722363E2,7.329691E1,7.2392676E2,5.796977E1,1.5327148E1,1.486102E2,5.753165E2,3.9460823E1,1.8508944E1,3.825157E0,1.1501992E1,4.8421104E1,1.0018909E2,9.558022E0,5.6575854E2,1.0993651E1,7.5152936E0,1.8735201E0,9.628471E0,4.1585186E1,6.8359184E0,5.9123894E1,4.1065193E1,2.9311702E0,6.626851E0,3.9939313E2,1.663654E2,9.966646E0,1.0270044E0,3.6338246E0,3.8814688E0,2.1672091E0,7.461262E0,2.0227602E1,2.1357586E1,2.6714532E0,4.164465E0,1.7686813E1,4.143708E1,4.477313E0,3.658788E1,1.5144382E0,1.4167322E0,1.0076857E0,5.6191654E0,3.6053644E2,3.8856678E1,6.5015045E1,1.0135036E2,1.094171E0,2.5396535E0,2.1805735E0,5.2806892E0,1.376908E1,6.4585214E0,1.7184828E1,4.172757E0,1.1453067E0,1.5261467E0,1.1355556E0,3.0289092E0,1.2211786E1,5.4750276E0,2.7201216E1,1.4235866E1,3.3966496E0,1.0806633E0,1.0974752E1,2.5613129E1,3.106734E2,4.9863052E1,2.756411E1,1.1292567E1,6.144301E1,3.5720317E0,5.872949E1,4.2620872E1],"tree_param":{"num_deleted":"0","num_feature":"8","num_nodes":"77","size_leaf_vector":"1"}},{"base_weights":[-2.2857906E-2,-9.353477E-1,1.6547026E-2,-2.9699534E-1,-3.16538E-1,-2.3106973E-1,8.9316405E-2,-1.767808E-1,1.0250198E-2,-4.6138528E-1,-5.097665E-2,1.7515227E-2,2.3502322E-1,-9.435629E-1,-2.0377074E-1,-3.7533197E-1,1.6224542E-1,-9.047389E-2,1.4620717E-1,1.9153066E-1,7.0444894E-1,-3.0340734E-1,-3.631436E-1,6.684923E-2,-6.308324E-1,-2.7920562E-1,-1.2694848E-1,4.395007E-2,6.5367883E-1,-5.114855E-1,1.3900962E-1,2.7736956E-1,-1.6295227E-1,-2.056789E-1,2.453419E-1,2.1142347E-1,2.7514032E-1,-1.2976639E-3,-1.904906E-1,1.035079E-1,-2.3697598E-1,-3.13568E-1,1.5381935E-1,-3.3912265E-1,2.493892E-2,5.764737E-2,-3.1177503E-1,3.205411E-1,-2.7925238E-1,-8.4821954E-2,-4.581216E-1,2.6654194E-3,2.5169232E-1,9.7031295E-2,-3.1695867E-1,-4.2378297E-1,5.6249134E-2,3.775895E-2,-7.459849E-1,1.9217083E-2,1.21014185E-1,2.4378423E-1,-2.5963122E-1],"categories":[],"categories_nodes":[],"categories_segments":[],"categories_sizes":[],"default_left":[0,0,0,0,0,0,0,0,0,0,0,0,0,0,0,0,0,0,0,0,0,0,0,0,0,0,0,0,0,0,0,0,0,0,0,0,0,0,0,0,0,0,0,0,0,0,0,0,0,0,0,0,0,0,0,0,0,0,0,0,0,0,0],"id":10,"left_children":[1,3,5,-1,7,9,11,-1,-1,13,15,17,19,21,23,25,27,29,31,33,35,-1,37,39,41,-1,43,45,47,49,51,53,55,57,59,61,-1,-1,-1,-1,-1,-1,-1,-1,-1,-1,-1,-1,-1,-1,-1,-1,-1,-1,-1,-1,-1,-1,-1,-1,-1,-1,-1],"loss_changes":[2.707197E1,7.4038315E-1,1.303587E1,0E0,4.0259492E-1,6.7928915E0,5.8438063E0,0E0,0E0,8.749937E0,6.5168056E0,5.232112E0,3.6307182E0,6.0832405E-1,5.6122704E0,5.030739E0,3.2861466E0,1.9858631E1,7.0086145E0,3.6878328E0,1.4068923E0,0E0,4.0234405E-1,7.5192647E0,9.440413E0,0E0,5.7750554E0,7.74988E0,8.218189E0,1.6402952E1,1.213765E1,7.7735643E0,2.2942684E1,1.6078403E1,4.28104E0,4.523214E0,0E0,0E0,0E0,0E0,0E0,0E0,0E0,0E0,0E0,0E0,0E0,0E0,0E0,0E0,0E0,0E0,0E0,0E0,0E0,0E0,0E0,0E0,0E0,0E0,0E0,0E0,0E0],"parents":[2147483647,0,0,1,1,2,2,4,4,5,5,6,6,9,9,10,10,11,11,12,12,13,13,14,14,15,15,16,16,17,17,18,18,19,19,20,20,22,22,23,23,24,24,26,26,27,27,28,28,29,29,30,30,31,31,32,32,33,33,34,34,35,35],"right_children":[2,4,6,-1,8,10,12,-1,-1,14,16,18,20,22,24,26,28,30,32,34,36,-1,38,40,42,-1,44,46,48,50,52,54,56,58,60,62,-1,-1,-1,-1,-1,-1,-1,-1,-1,-1,-1,-1,-1,-1,-1,-1,-1,-1,-1,-1,-1,-1,-1,-1,-1,-1,-1],"split_conditions":[3.5531916E-2,1.8729642E-2,2.1376114E-3,-2.9699534E-1,3.989759E4,7.180722E-2,5.277244E-2,-1.767808E-1,1.0250198E-2,-1.3450359E-2,-4.0489405E-2,9.752762E8,7.770981E6,6.8022944E-2,5.177149E8,1.985671E6,3.28695E3,1.63131E3,1.622695E6,5.95273E5,1.98465E3,-3.0340734E-1,-2.6260454E-2,3.330096E6,4.2351987E12,-2.7920562E-1,9.697E-2,1.8637805E0,6.84298E6,2.3637476E0,7.6895406E5,1.2118169E-1,7.355327E-2,5.306245E6,2.3059706E-1,2.6837093E-5,2.7514032E-1,-1.2976639E-3,-1.904906E-1,1.035079E-1,-2.3697598E-1,-3.13568E-1,1.5381935E-1,-3.3912265E-1,2.493892E-2,5.764737E-2,-3.1177503E-1,3.205411E-1,-2.7925238E-1,-8.4821954E-2,-4.581216E-1,2.6654194E-3,2.5169232E-1,9.7031295E-2,-3.1695867E-1,-4.2378297E-1,5.6249134E-2,3.775895E-2,-7.459849E-1,1.9217083E-2,1.21014185E-1,2.4378423E-1,-2.5963122E-1],"split_indices":[6,7,7,0,0,6,7,0,0,7,7,4,5,6,4,5,1,2,5,4,0,0,7,5,4,0,2,0,5,3,4,6,6,5,1,2,0,0,0,0,0,0,0,0,0,0,0,0,0,0,0,0,0,0,0,0,0,0,0,0,0,0,0],"split_type":[0,0,0,0,0,0,0,0,0,0,0,0,0,0,0,0,0,0,0,0,0,0,0,0,0,0,0,0,0,0,0,0,0,0,0,0,0,0,0,0,0,0,0,0,0,0,0,0,0,0,0,0,0,0,0,0,0,0,0,0,0,0,0],"sum_hessian":[7.514764E2,3.0167133E1,7.2130927E2,2.7168516E1,2.9986186E0,1.6333705E2,5.579722E2,1.3041704E0,1.6944484E0,7.0989204E1,9.234785E1,3.745314E2,1.8344081E2,2.3793037E1,4.7196167E1,3.6326843E1,5.6021004E1,2.0380757E2,1.7072382E2,1.6917468E2,1.4266122E1,2.0639784E1,3.153253E0,2.94058E1,1.7790369E1,1.0377383E1,2.594946E1,4.6030266E1,9.990739E0,7.146629E1,1.3234128E2,1.1994107E2,5.078275E1,1.9847492E1,1.493272E2,4.9004555E0,9.365666E0,1.7970287E0,1.3562243E0,2.2649288E1,6.7565107E0,1.3121508E1,4.6688614E0,3.7337801E0,2.221568E1,4.1213825E1,4.8164406E0,8.176103E0,1.8146365E0,5.9372032E1,1.2094261E1,1.124494E2,1.989188E1,1.1666926E2,3.2718143E0,1.0458441E1,4.032431E1,1.815362E1,1.6938713E0,7.02031E1,7.912409E1,3.3022559E0,1.5981997E0],"tree_param":{"num_deleted":"0","num_feature":"8","num_nodes":"63","size_leaf_vector":"1"}},{"base_weights":[-2.2746293E-2,-9.0396744E-1,8.061709E-3,-2.9164734E-1,-2.8148884E-1,-1.9519617E-1,6.524583E-2,-1.6305004E-1,8.311551E-3,-2.6910818E-1,-1.4417122E-1,-6.345121E-1,8.1092946E-2,-2.2095528E-1,1.603135E-1,-3.0259728E-1,3.9771535E-2,-6.3533266E-3,1.9911027E-1,-1.09669924E-1,-7.1197015E-1,6.006376E-1,-4.843578E-1,5.263923E-1,-2.8003645E-1,-8.13424E-1,8.108654E-2,3.51683E-1,-5.8737125E-2,-1.5852664E-1,1.5480947E-2,-2.557005E-1,1.2874654E-1,5.1454236E-3,3.1933093E-1,-2.9181814E-1,1.8444842E-1,2.613575E-1,-3.472686E-2,-3.4731172E-2,-6.7778957E-1,-2.135701E-1,3.0214053E-2,1.9925804E-1,4.9639802E-2,-2.5517187E-1,6.992834E-2],"categories":[],"categories_nodes":[],"categories_segments":[],"categories_sizes":[],"default_left":[0,0,0,0,0,0,0,0,0,0,0,0,0,0,0,0,0,0,0,0,0,0,0,0,0,0,0,0,0,0,0,0,0,0,0,0,0,0,0,0,0,0,0,0,0,0,0],"id":11,"left_children":[1,3,5,-1,7,9,11,-1,-1,-1,13,15,17,19,21,-1,23,25,27,29,31,33,35,37,-1,39,41,43,45,-1,-1,-1,-1,-1,-1,-1,-1,-1,-1,-1,-1,-1,-1,-1,-1,-1,-1],"loss_changes":[1.9497232E1,7.560749E-1,8.086597E0,0E0,3.2312202E-1,5.341474E0,6.0714054E0,0E0,0E0,0E0,3.3928852E0,3.101581E0,5.4888473E0,6.211633E0,8.665093E0,0E0,2.9979255E0,2.1688251E1,8.924949E0,6.4443192E0,3.7431688E0,4.8460813E0,7.3220315E0,1.0236579E0,0E0,3.0041573E1,4.388402E0,8.1736145E0,1.9839819E1,0E0,0E0,0E0,0E0,0E0,0E0,0E0,0E0,0E0,0E0,0E0,0E0,0E0,0E0,0E0,0E0,0E0,0E0],"parents":[2147483647,0,0,1,1,2,2,4,4,5,5,6,6,10,10,11,11,12,12,13,13,14,14,16,16,17,17,18,18,19,19,20,20,21,21,22,22,23,23,25,25,26,26,27,27,28,28],"right_children":[2,4,6,-1,8,10,12,-1,-1,-1,14,16,18,20,22,-1,24,26,28,30,32,34,36,38,-1,40,42,44,46,-1,-1,-1,-1,-1,-1,-1,-1,-1,-1,-1,-1,-1,-1,-1,-1,-1,-1],"split_conditions":[3.5531916E-2,1.8729642E-2,2.1376114E-3,-2.9164734E-1,3.989759E4,4.485099E-2,1.83584E5,-1.6305004E-1,8.311551E-3,-2.6910818E-1,5.306245E6,5.088623E12,1.2099788E9,3.419393E6,6.84298E6,-3.0259728E-1,9.928278E-6,2.4078E-1,1.622695E6,-2.7239593E-2,3.282739E-1,4.017018E3,1.6069511E13,2.7747354E-2,-2.8003645E-1,8.75226E5,2.4602814E4,1.9243625E9,9.492122E-2,-1.5852664E-1,1.5480947E-2,-2.557005E-1,1.2874654E-1,5.1454236E-3,3.1933093E-1,-2.9181814E-1,1.8444842E-1,2.613575E-1,-3.472686E-2,-3.4731172E-2,-6.7778957E-1,-2.135701E-1,3.0214053E-2,1.9925804E-1,4.9639802E-2,-2.5517187E-1,6.992834E-2],"split_indices":[6,7,7,0,0,6,5,0,0,0,5,4,4,5,5,0,3,0,5,7,6,0,4,7,0,5,4,4,6,0,0,0,0,0,0,0,0,0,0,0,0,0,0,0,0,0,0],"split_type":[0,0,0,0,0,0,0,0,0,0,0,0,0,0,0,0,0,0,0,0,0,0,0,0,0,0,0,0,0,0,0,0,0,0,0,0,0,0,0,0,0,0,0,0,0,0,0],"sum_hessian":[7.16897E2,2.3259129E1,6.936379E2,2.0456446E1,2.8026834E0,1.5176915E2,5.418687E2,1.1068993E0,1.6957841E0,9.162456E0,1.4260669E2,1.11351795E1,5.307335E2,1.1410609E2,2.8500605E1,6.842519E0,4.2926607E0,3.0539432E2,2.2533922E2,9.402033E1,2.008575E1,1.6974777E1,1.1525827E1,3.167842E0,1.1248192E0,2.9041195E1,2.7635312E2,1.4134126E2,8.3997955E1,2.5508888E1,6.8511444E1,1.8111063E1,1.9746877E0,7.976655E0,8.998122E0,8.059869E0,3.4659593E0,1.8290546E0,1.3387872E0,2.0317705E1,8.72349E0,5.8228164E0,2.705303E2,5.181621E1,8.952504E1,2.2105045E1,6.1892914E1],"tree_param":{"num_deleted":"0","num_feature":"8","num_nodes":"47","size_leaf_vector":"1"}},{"base_weights":[-1.998473E-2,-8.688403E-1,4.091409E-3,-2.8589258E-1,-2.514947E-1,-2.6395848E-1,3.9474055E-2,-1.23700164E-1,-7.797364E-3,-1.53447E-1,-1.2773588E0,-3.682287E-1,6.32516E-2,-3.2355127E-1,9.164577E-1,-4.1146E-1,-9.885248E-2,-6.8690205E-1,2.6149073E-1,6.4000348E-3,4.6636724E-1,-8.630704E-2,-1.5885003E0,1.5492959E0,-2.4964118E-1,-2.1828276E-1,-9.8283947E-1,4.8094288E-1,-2.6373267E-1,-1.2125214E0,3.3966187E-2,1.617517E-1,1.0919031E0,-1.5893278E-1,5.138715E-2,-2.2658281E-1,-5.69316E-1,5.5364066E-1,5.6794006E-2,-3.630889E-1,1.6755643E-1,-1.8042468E-1,9.8360285E-2,-4.3083337E-1,-1.4142217E-1,-4.5274246E-2,2.1751742E-1,-9.082304E-2,-3.9181408E-1,2.065686E-2,-1.876289E-1,-5.172162E-1,1.0458558E-1,7.8815386E-2,3.4121984E-1],"categories":[],"categories_nodes":[],"categories_segments":[],"categories_sizes":[],"default_left":[0,0,0,0,0,0,0,0,0,0,0,0,0,0,0,0,0,0,0,0,0,0,0,0,0,0,0,0,0,0,0,0,0,0,0,0,0,0,0,0,0,0,0,0,0,0,0,0,0,0,0,0,0,0,0],"id":12,"left_children":[1,3,5,-1,7,9,11,-1,-1,13,15,17,19,21,23,-1,-1,25,27,29,31,33,35,37,39,41,43,45,-1,47,49,51,53,-1,-1,-1,-1,-1,-1,-1,-1,-1,-1,-1,-1,-1,-1,-1,-1,-1,-1,-1,-1,-1,-1],"loss_changes":[1.4137008E1,7.5126743E-1,6.3978977E0,0E0,1.2155023E-1,8.613647E0,5.7992234E0,0E0,0E0,1.3411976E1,2.2630882E-1,6.7978954E0,1.2918846E1,1.874471E1,7.87459E0,0E0,0E0,2.8606043E0,3.3779418E0,1.667902E1,1.3099928E1,6.2639375E0,1.1120949E0,2.355791E0,4.115821E0,2.2621338E0,2.407487E0,1.7363243E0,0E0,5.386715E-1,1.1205309E1,1.7527054E1,5.554352E-1,0E0,0E0,0E0,0E0,0E0,0E0,0E0,0E0,0E0,0E0,0E0,0E0,0E0,0E0,0E0,0E0,0E0,0E0,0E0,0E0,0E0,0E0],"parents":[2147483647,0,0,1,1,2,2,4,4,5,5,6,6,9,9,10,10,11,11,12,12,13,13,14,14,17,17,18,18,19,19,20,20,21,21,22,22,23,23,24,24,25,25,26,26,27,27,29,29,30,30,31,31,32,32],"right_children":[2,4,6,-1,8,10,12,-1,-1,14,16,18,20,22,24,-1,-1,26,28,30,32,34,36,38,40,42,44,46,-1,48,50,52,54,-1,-1,-1,-1,-1,-1,-1,-1,-1,-1,-1,-1,-1,-1,-1,-1,-1,-1,-1,-1,-1,-1],"split_conditions":[3.5531916E-2,1.8729642E-2,4.62126E5,-2.8589258E-1,4.170447E4,5.727E-1,4.2900375E4,-1.23700164E-1,-7.797364E-3,5.323E-1,4.22687E5,9.238434E4,4.788E3,1.1551395E-1,6.9518715E-2,-4.1146E-1,-9.885248E-2,4.8617933E-2,5.422528E6,3.7506525E5,1.1650303E5,2.24101E5,5.2117263E-3,5.441E-1,5.262E-1,5.203723E6,3.4332527E4,2.4602814E4,-2.6373267E-1,-9.99874E-3,3.1839224E3,1.87279E6,-5.447013E-2,-1.5893278E-1,5.138715E-2,-2.2658281E-1,-5.69316E-1,5.5364066E-1,5.6794006E-2,-3.630889E-1,1.6755643E-1,-1.8042468E-1,9.8360285E-2,-4.3083337E-1,-1.4142217E-1,-4.5274246E-2,2.1751742E-1,-9.082304E-2,-3.9181408E-1,2.065686E-2,-1.876289E-1,-5.172162E-1,1.0458558E-1,7.8815386E-2,3.4121984E-1],"split_indices":[6,7,5,0,0,0,4,0,0,3,5,2,1,2,6,0,0,6,5,4,4,5,7,0,2,5,4,4,0,7,2,5,7,0,0,0,0,0,0,0,0,0,0,0,0,0,0,0,0,0,0,0,0,0,0],"split_type":[0,0,0,0,0,0,0,0,0,0,0,0,0,0,0,0,0,0,0,0,0,0,0,0,0,0,0,0,0,0,0,0,0,0,0,0,0,0,0,0,0,0,0,0,0,0,0,0,0,0,0,0,0,0,0],"sum_hessian":[6.905564E2,1.8078354E1,6.724781E2,1.5431593E1,2.6467617E0,7.766299E1,5.9481506E2,1.0612953E0,1.5854665E0,7.106477E1,6.5982094E0,3.1980112E1,5.6283496E2,6.1918015E1,9.146763E0,5.5952916E0,1.0029176E0,2.117405E1,1.0806063E1,4.9415936E2,6.867561E1,5.3038708E1,8.879308E0,5.71606E0,3.4307024E0,8.868424E0,1.2305625E1,9.547465E0,1.2585969E0,9.977731E0,4.841816E2,4.703143E1,2.1644188E1,1.9100132E1,3.3938576E1,3.3350906E0,5.544217E0,4.4007072E0,1.315353E0,1.3401222E0,2.0905802E0,5.152604E0,3.7158206E0,5.565245E0,6.74038E0,2.7670763E0,6.7803893E0,1.3250637E0,8.652667E0,4.6070056E2,2.3481052E1,3.4985893E0,4.3532837E1,1.478189E0,2.0165998E1],"tree_param":{"num_deleted":"0","num_feature":"8","num_nodes":"55","size_leaf_vector":"1"}},{"base_weights":[-1.9156402E-2,-8.2653326E-1,-4.3766774E-4,-2.794005E-1,-2.1952854E-1,-3.0790593E-2,2.4964584E-1,8.884034E-4,-9.925079E-2,-3.8048276E-1,2.2580344E-2,6.915226E-1,-8.050006E-1,-1.4685742E0,-1.08512424E-1,4.434989E-1,-4.344273E-2,8.048111E-1,2.497738E-2,-1.1480219E0,3.6766323E-1,-8.335072E-1,-1.7532787E0,9.063543E-2,-1.9003998E0,-8.755183E-1,6.9914526E-1,-5.022626E-1,2.0520497E-2,-3.6023706E-2,9.3478525E-1,-8.6174184E-1,5.563073E-1,-5.387358E-1,-1.8285009E0,-2.6093692E-1,2.5548488E-1,-2.9400074E-1,-3.390448E-2,-2.0401113E-1,-5.7461417E-1,-6.5805875E-2,1.8488547E-1,-2.2473101E-1,-6.6065526E-1,-4.237084E-1,-1.1088576E-1,-2.3456027E-1,2.411553E-1,-3.8245234E-1,-1.01897426E-1,-1.1970268E-2,9.094019E-2,2.6047274E-1,-1.7219275E-1,3.0110532E-1,1.1562913E-1,-3.555528E-1,-1.2641079E-2,2.1492176E-2,2.3518659E-1,-2.7859852E-1,6.388619E-2,-8.724312E-1,-2.435738E-1],"categories":[],"categories_nodes":[],"categories_segments":[],"categories_sizes":[],"default_left":[0,0,0,0,0,0,0,0,0,0,0,0,0,0,0,0,0,0,0,0,0,0,0,0,0,0,0,0,0,0,0,0,0,0,0,0,0,0,0,0,0,0,0,0,0,0,0,0,0,0,0,0,0,0,0,0,0,0,0,0,0,0,0,0,0],"id":13,"left_children":[1,3,5,-1,7,9,11,-1,-1,13,15,17,19,21,23,25,27,29,31,33,35,37,39,41,43,45,47,49,51,53,55,57,59,61,63,-1,-1,-1,-1,-1,-1,-1,-1,-1,-1,-1,-1,-1,-1,-1,-1,-1,-1,-1,-1,-1,-1,-1,-1,-1,-1,-1,-1,-1,-1],"loss_changes":[1.0157329E1,7.6434517E-1,5.001529E0,0E0,8.891049E-2,1.0974612E1,3.3791435E1,0E0,0E0,2.288102E1,1.4212079E1,3.8156147E0,9.078218E0,1.3392143E0,2.278533E1,2.3992018E1,1.299296E1,4.775074E0,4.442312E0,6.018366E0,4.1109033E0,5.965028E-1,4.004383E-1,9.583518E0,5.683403E-1,2.6556911E0,9.720985E0,6.3713884E0,6.65822E0,3.7922919E0,1.0368233E0,8.8952017E-1,5.912049E-1,3.225459E0,5.9382553E0,0E0,0E0,0E0,0E0,0E0,0E0,0E0,0E0,0E0,0E0,0E0,0E0,0E0,0E0,0E0,0E0,0E0,0E0,0E0,0E0,0E0,0E0,0E0,0E0,0E0,0E0,0E0,0E0,0E0,0E0],"parents":[2147483647,0,0,1,1,2,2,4,4,5,5,6,6,9,9,10,10,11,11,12,12,13,13,14,14,15,15,16,16,17,17,18,18,19,19,20,20,21,21,22,22,23,23,24,24,25,25,26,26,27,27,28,28,29,29,30,30,31,31,32,32,33,33,34,34],"right_children":[2,4,6,-1,8,10,12,-1,-1,14,16,18,20,22,24,26,28,30,32,34,36,38,40,42,44,46,48,50,52,54,56,58,60,62,64,-1,-1,-1,-1,-1,-1,-1,-1,-1,-1,-1,-1,-1,-1,-1,-1,-1,-1,-1,-1,-1,-1,-1,-1,-1,-1,-1,-1,-1,-1],"split_conditions":[3.5531916E-2,1.8729642E-2,4.7842266E12,-2.794005E-1,2.1568628E-2,6.365E-2,2.129E-5,8.884034E-4,-9.925079E-2,1.7615023E12,1.3934E-1,3.460059E6,2.3399979E-1,5.172003E-2,2.244489E6,1.01447366E9,2.3059706E-1,1.57173E5,2.7747354E-2,2.1301774E-2,5.878911E6,3.0624878E-2,-3.241607E-3,4.5182012E-2,-1.4311766E-3,1.0179E-1,2.24101E5,9.752762E8,1.2573214E-1,7.76E-6,1.4379929E-1,9.371866E12,8.3040014E-2,-2.4564276E-3,2.987953E6,-2.6093692E-1,2.5548488E-1,-2.9400074E-1,-3.390448E-2,-2.0401113E-1,-5.7461417E-1,-6.5805875E-2,1.8488547E-1,-2.2473101E-1,-6.6065526E-1,-4.237084E-1,-1.1088576E-1,-2.3456027E-1,2.411553E-1,-3.8245234E-1,-1.01897426E-1,-1.1970268E-2,9.094019E-2,2.6047274E-1,-1.7219275E-1,3.0110532E-1,1.1562913E-1,-3.555528E-1,-1.2641079E-2,2.1492176E-2,2.3518659E-1,-2.7859852E-1,6.388619E-2,-8.724312E-1,-2.435738E-1],"split_indices":[6,7,4,0,7,3,0,0,0,4,3,5,6,6,5,4,1,5,7,7,5,7,7,7,7,2,5,4,6,2,6,4,7,7,5,0,0,0,0,0,0,0,0,0,0,0,0,0,0,0,0,0,0,0,0,0,0,0,0,0,0,0,0,0,0],"split_type":[0,0,0,0,0,0,0,0,0,0,0,0,0,0,0,0,0,0,0,0,0,0,0,0,0,0,0,0,0,0,0,0,0,0,0,0,0,0,0,0,0,0,0,0,0,0,0,0,0,0,0,0,0,0,0,0,0,0,0,0,0,0,0,0,0],"sum_hessian":[6.711129E2,1.4229068E1,6.5688385E2,1.1678428E1,2.5506394E0,5.8656824E2,7.031559E1,1.1751177E0,1.3755217E0,7.68579E1,5.0971033E2,4.9796227E1,2.051936E1,1.4489391E1,6.236851E1,6.833502E1,4.413753E2,4.2384895E1,7.4113317E0,1.5891792E1,4.627568E0,5.700771E0,8.78862E0,5.6984726E1,5.383784E0,1.0700526E1,5.76345E1,5.316448E1,3.8821085E2,5.771362E0,3.6613533E1,2.543953E0,4.8673787E0,9.329796E0,6.561997E0,1.0768459E0,3.5507221E0,4.438185E0,1.2625854E0,1.8349473E0,6.953673E0,3.6212208E1,2.0772522E1,1.8413497E0,3.5424342E0,4.322185E0,6.3783407E0,3.378594E0,5.4255905E1,8.054625E0,4.510985E1,3.205398E2,6.767104E1,1.9237212E0,3.8476408E0,3.1798409E1,4.815125E0,1.5042927E0,1.0396601E0,1.9757243E0,2.8916543E0,5.988127E0,3.3416686E0,2.2800078E0,4.281989E0],"tree_param":{"num_deleted":"0","num_feature":"8","num_nodes":"65","size_leaf_vector":"1"}},{"base_weights":[-1.7868102E-2,-7.9132134E-1,-3.3212781E-3,-2.7229136E-1,-4.4406593E-2,-1.6242272E-1,4.090786E-2,-7.696481E-1,-1.164994E-1,-2.3731332E-1,7.041813E-2,-8.687104E-1,-2.4495213E-3,-1.7640409E-1,5.570114E-1,-3.5366952E-1,2.593038E-1,4.433909E-1,4.0158063E-2,-3.0045074E-1,-7.765942E-3,-3.5429892E-1,5.4262737E-3,-1.6388606E-1,7.341061E-1,-2.4165131E-1,-3.6234397E-1,-1.1626068E0,6.9406474E-1,-9.157503E-1,4.9229953E-2,-2.7879685E-1,-1.9240893E-3,2.3877683E-1,-7.7004544E-2,-1.017474E-2,3.1001592E-1,-1.192173E-1,1.7045489E-1,-1.7572302E-2,-4.3906575E-1,2.9885188E-1,-4.1515537E-2,-4.459518E-1,6.520547E-2,2.2825055E-1,1.1124185E-2],"categories":[],"categories_nodes":[],"categories_segments":[],"categories_sizes":[],"default_left":[0,0,0,0,0,0,0,0,0,0,0,0,0,0,0,0,0,0,0,0,0,0,0,0,0,0,0,0,0,0,0,0,0,0,0,0,0,0,0,0,0,0,0,0,0,0,0],"id":14,"left_children":[1,3,5,-1,-1,7,9,11,13,15,17,19,-1,21,23,25,-1,27,29,-1,-1,31,33,-1,35,37,-1,39,41,43,45,-1,-1,-1,-1,-1,-1,-1,-1,-1,-1,-1,-1,-1,-1,-1,-1],"loss_changes":[7.2849817E0,7.600374E-1,4.4874773E0,0E0,0E0,3.7784157E0,4.1140943E0,7.151542E-1,5.348822E0,6.4695582E0,5.0831347E0,9.212403E-1,0E0,3.892158E0,2.5249E0,3.9373407E0,0E0,1.4421185E1,3.6798737E0,0E0,0E0,1.21579E1,1.2731442E1,0E0,2.286048E0,5.3119755E0,0E0,1.5554714E0,7.651819E0,2.9044666E0,3.569666E0,0E0,0E0,0E0,0E0,0E0,0E0,0E0,0E0,0E0,0E0,0E0,0E0,0E0,0E0,0E0,0E0],"parents":[2147483647,0,0,1,1,2,2,5,5,6,6,7,7,8,8,9,9,10,10,11,11,13,13,14,14,15,15,17,17,18,18,21,21,22,22,24,24,25,25,27,27,28,28,29,29,30,30],"right_children":[2,4,6,-1,-1,8,10,12,14,16,18,20,-1,22,24,26,-1,28,30,-1,-1,32,34,-1,36,38,-1,40,42,44,46,-1,-1,-1,-1,-1,-1,-1,-1,-1,-1,-1,-1,-1,-1,-1,-1],"split_conditions":[3.508772E-2,1.980198E-2,2.1376114E-3,-2.7229136E-1,-4.4406593E-2,9.160703E4,3.98094E5,8.629808E-2,4.017018E3,9.371866E12,1.405E-5,-2.4564276E-3,-2.4495213E-3,1.8605645E9,-6.417033E-2,5.622E-1,2.593038E-1,1.7615023E12,1.4369946E-5,-3.0045074E-1,-7.765942E-3,-1.6264867E-2,2.7059963E9,-1.6388606E-1,5.203723E6,5.08E-1,-3.6234397E-1,4.40577E5,1.00262746E-1,2.7515337E12,3.117693E-3,-2.7879685E-1,-1.9240893E-3,2.3877683E-1,-7.7004544E-2,-1.017474E-2,3.1001592E-1,-1.192173E-1,1.7045489E-1,-1.7572302E-2,-4.3906575E-1,2.9885188E-1,-4.1515537E-2,-4.459518E-1,6.520547E-2,2.2825055E-1,1.1124185E-2],"split_indices":[6,7,7,0,0,4,5,6,0,4,1,7,0,4,7,0,0,4,1,0,0,7,4,0,5,2,0,5,6,4,7,0,0,0,0,0,0,0,0,0,0,0,0,0,0,0,0],"split_type":[0,0,0,0,0,0,0,0,0,0,0,0,0,0,0,0,0,0,0,0,0,0,0,0,0,0,0,0,0,0,0,0,0,0,0,0,0,0,0,0,0,0,0,0,0,0,0],"sum_hessian":[6.467134E2,1.0952855E1,6.3576056E2,8.927705E0,2.0251503E0,1.3771143E2,4.980491E2,8.574527E0,1.291369E2,4.708573E1,4.5096338E2,7.46286E0,1.1116669E0,1.1926692E2,9.869984E0,4.3201767E1,3.8839636E0,3.281739E1,4.1814597E2,6.2844386E0,1.1784211E0,5.980643E1,5.9460495E1,1.0768018E0,8.793181E0,3.9327065E1,3.8747036E0,3.9395916E0,2.8877798E1,2.991457E0,4.151545E2,2.1913685E1,3.7892746E1,1.4299066E1,4.5161427E1,2.7143111E0,6.0788703E0,3.3411057E1,5.916006E0,1.099749E0,2.8398426E0,2.1043962E1,7.8338346E0,1.7819693E0,1.2094877E0,5.9345646E0,4.0921997E2],"tree_param":{"num_deleted":"0","num_feature":"8","num_nodes":"47","size_leaf_vector":"1"}},{"base_weights":[-1.5089362E-2,-7.363325E-1,-3.7022387E-3,-2.6354268E-1,-3.586738E-2,-1.1094349E-2,2.5497317E-1,3.3007924E-2,-1.4851157E-1,-3.3981673E-2,2.513538E-1,-7.774036E-1,-9.950554E-3,-1.0179884E0,4.507203E-2,7.147974E-3,9.4932556E-1,1.4827721E-1,-1.3338318E0,-2.711571E-1,1.6084822E-1,-4.616919E-1,-8.285339E-2,3.62191E-1,-3.0501503E-3,-2.5083473E-1,3.454186E-2,3.0347887E-1,-1.0066154E-1,-1.12941705E-1,1.4148876E-1,-4.7465572E-1,1.6377333E-1,-3.107435E-1,1.1140004E-2,1.5443346E-1,-5.4098554E-2],"categories":[],"categories_nodes":[],"categories_segments":[],"categories_sizes":[],"default_left":[0,0,0,0,0,0,0,0,0,0,0,0,0,0,0,0,0,0,0,0,0,0,0,0,0,0,0,0,0,0,0,0,0,0,0,0,0],"id":15,"left_children":[1,3,5,-1,-1,7,-1,9,11,13,15,17,19,21,23,25,27,29,31,33,35,-1,-1,-1,-1,-1,-1,-1,-1,-1,-1,-1,-1,-1,-1,-1,-1],"loss_changes":[5.1929665E0,7.5657177E-1,3.9456027E0,0E0,0E0,3.758908E0,0E0,6.8795443E0,1.3122485E1,2.8076994E1,1.8811583E1,1.4203564E1,5.5974927E0,9.947584E0,2.1487864E1,7.636142E0,2.6283798E0,2.0624413E0,8.838881E0,1.1728652E1,9.2576885E0,0E0,0E0,0E0,0E0,0E0,0E0,0E0,0E0,0E0,0E0,0E0,0E0,0E0,0E0,0E0,0E0],"parents":[2147483647,0,0,1,1,2,2,5,5,7,7,8,8,9,9,10,10,11,11,12,12,13,13,14,14,15,15,16,16,17,17,18,18,19,19,20,20],"right_children":[2,4,6,-1,-1,8,-1,10,12,14,16,18,20,22,24,26,28,30,32,34,36,-1,-1,-1,-1,-1,-1,-1,-1,-1,-1,-1,-1,-1,-1,-1,-1],"split_conditions":[3.508772E-2,1.980198E-2,2.1201628E-1,-2.6354268E-1,-3.586738E-2,3.374538E6,2.5497317E-1,1.63131E3,4.063289E6,2.1268578E8,6.1450844E5,3.262755E-1,2.4435188E3,3.773585E-2,2.2358978E8,1.123447E6,3.882113E3,1.02846295E-1,1.0685688E5,1.2314653E-1,5.495509E6,-4.616919E-1,-8.285339E-2,3.62191E-1,-3.0501503E-3,-2.5083473E-1,3.454186E-2,3.0347887E-1,-1.0066154E-1,-1.12941705E-1,1.4148876E-1,-4.7465572E-1,1.6377333E-1,-3.107435E-1,1.1140004E-2,1.5443346E-1,-5.4098554E-2],"split_indices":[6,7,7,0,0,5,0,2,5,4,4,0,2,7,4,5,1,6,1,6,5,0,0,0,0,0,0,0,0,0,0,0,0,0,0,0,0],"split_type":[0,0,0,0,0,0,0,0,0,0,0,0,0,0,0,0,0,0,0,0,0,0,0,0,0,0,0,0,0,0,0,0,0,0,0,0,0],"sum_hessian":[6.316271E2,8.827741E0,6.227993E2,6.829495E0,1.9982456E0,6.1843085E2,4.368481E0,4.6875107E2,1.4967976E2,3.5934622E2,1.0940484E2,2.6191751E1,1.23488014E2,2.5839277E1,3.3350696E2,8.1796265E1,2.7608574E1,1.0108554E1,1.6083197E1,4.8590244E1,7.4897766E1,1.4547641E1,1.1291637E1,1.4185636E1,3.1932132E2,8.520513E0,7.327576E1,2.6535233E1,1.0733413E0,3.79141E0,6.317144E0,1.4346073E1,1.7371237E0,1.3283426E1,3.5306816E1,3.6512054E1,3.8385715E1],"tree_param":{"num_deleted":"0","num_feature":"8","num_nodes":"37","size_leaf_vector":"1"}},{"base_weights":[-1.10256225E-2,-3.6879393E-1,8.877681E-3,-1.9969283E-1,-3.8553745E-1,-3.4013674E-2,3.7509543E-1,-3.4711573E-1,4.09626E-2,-3.4434938E-1,-1.4808101E-2,1.3764253E-1,9.821163E-1,-3.138164E-1,1.9233324E-1,7.425031E-3,-4.7557047E-1,-4.123314E-1,2.7414826E-1,2.9657124E-2,3.1203833E-1,-5.23594E-1,4.6670812E-1,-2.458109E-2,3.9223328E-1,-1.2018702E0,7.108994E-1,4.9778256E-1,-3.931229E-1,-2.931153E-1,1.6200407E-1,-2.2031589E-1,1.9068813E-1,-2.0818132E-1,1.7230456E-4,1.8436673E-1,-2.4626668E-1,1.995725E-1,-4.5190367E-1,3.7968352E-2,2.9717168E-1,-1.130496E-1,1.9052447E-1,1.2328159E-1,-2.2187006E-1],"categories":[],"categories_nodes":[],"categories_segments":[],"categories_sizes":[],"default_left":[0,0,0,0,0,0,0,0,0,0,0,0,0,0,0,0,0,0,0,0,0,0,0,0,0,0,0,0,0,0,0,0,0,0,0,0,0,0,0,0,0,0,0,0,0],"id":16,"left_children":[1,3,5,7,-1,9,11,-1,13,-1,15,17,19,-1,21,23,25,-1,27,-1,-1,29,31,33,35,37,39,41,43,-1,-1,-1,-1,-1,-1,-1,-1,-1,-1,-1,-1,-1,-1,-1,-1],"loss_changes":[4.408227E0,4.798551E0,9.232823E0,6.66557E0,0E0,1.1242619E1,8.7470665E0,0E0,4.1372056E0,0E0,5.314633E0,9.759772E0,7.7666473E-1,0E0,4.534793E0,6.113185E0,2.1433054E1,0E0,6.541938E0,0E0,0E0,3.6735644E0,3.7777102E0,7.7198796E0,1.078359E1,9.634308E0,1.4591937E0,4.117305E0,3.4333155E0,0E0,0E0,0E0,0E0,0E0,0E0,0E0,0E0,0E0,0E0,0E0,0E0,0E0,0E0,0E0,0E0],"parents":[2147483647,0,0,1,1,2,2,3,3,5,5,6,6,8,8,10,10,11,11,12,12,14,14,15,15,16,16,18,18,21,21,22,22,23,23,24,24,25,25,26,26,27,27,28,28],"right_children":[2,4,6,8,-1,10,12,-1,14,-1,16,18,20,-1,22,24,26,-1,28,-1,-1,30,32,34,36,38,40,42,44,-1,-1,-1,-1,-1,-1,-1,-1,-1,-1,-1,-1,-1,-1,-1,-1],"split_conditions":[4.2900375E4,6.17305E6,4.788E3,2.476698E6,-3.8553745E-1,3.6222338E5,1.1650303E5,-3.4711573E-1,6.5E4,-3.4434938E-1,3.1839224E3,1.837198E6,-5.447013E-2,-3.138164E-1,2.4602814E4,2.58099E3,9.427097E5,-4.123314E-1,8.2650736E-2,2.9657124E-2,3.1203833E-1,5.326831E6,1.719929E-4,4.71754E-2,5.422528E6,3.9920625E5,9.798471E5,8.334695E-3,6.243319E4,-2.931153E-1,1.6200407E-1,-2.2031589E-1,1.9068813E-1,-2.0818132E-1,1.7230456E-4,1.8436673E-1,-2.4626668E-1,1.995725E-1,-4.5190367E-1,3.7968352E-2,2.9717168E-1,-1.130496E-1,1.9052447E-1,1.2328159E-1,-2.2187006E-1],"split_indices":[4,5,1,5,0,4,4,0,1,0,2,5,7,0,4,0,4,0,6,0,0,5,7,6,5,4,4,7,1,0,0,0,0,0,0,0,0,0,0,0,0,0,0,0,0],"split_type":[0,0,0,0,0,0,0,0,0,0,0,0,0,0,0,0,0,0,0,0,0,0,0,0,0,0,0,0,0,0,0,0,0,0,0,0,0,0,0,0,0,0,0,0,0],"sum_hessian":[6.1760614E2,3.1624063E1,5.859821E2,2.7725487E1,3.8985777E0,5.2535925E2,6.0622856E1,4.804524E0,2.2920961E1,7.9091067E0,5.1745013E2,4.4458458E1,1.6164398E1,2.0792165E0,2.0841745E1,4.9456958E2,2.2880543E1,2.9303303E0,4.152813E1,1.1628833E0,1.50015135E1,5.5227914E0,1.53189535E1,4.574571E2,3.7112507E1,1.4184497E1,8.696046E0,3.1294016E1,1.0234111E1,3.9290617E0,1.59373E0,1.4760401E0,1.3842914E1,1.560628E1,4.418508E2,3.178149E1,5.3310156E0,1.8226589E0,1.2361838E1,3.2850056E0,5.4110403E0,4.0093384E0,2.7284678E1,3.025671E0,7.2084403E0],"tree_param":{"num_deleted":"0","num_feature":"8","num_nodes":"45","size_leaf_vector":"1"}},{"base_weights":[-1.1156304E-2,-3.8248765E-1,4.8898295E-3,-1.0737578E0,-3.6314152E-2,-2.6334327E-2,2.7712667E-1,-3.7453914E-1,-6.926659E-2,1.1875616E-1,-2.6522923E-1,-3.205397E-1,-1.1429815E-2,8.2099475E-2,9.026217E-1,-4.471179E-1,3.9636347E-1,5.3364135E-2,-1.5739396E-1,-1.0732851E0,2.0887522E-1,2.501804E-2,2.9086378E-1,-2.6531506E-1,1.4732246E-1,-8.355357E-2,5.3192145E-1,-5.7520074E-1,7.6774575E-2,-3.338501E-1,1.0207733E-1,-6.2289305E-2,-3.9458323E-1,4.0945303E-1,-3.605706E-1,-1.8728944E-2,2.1754193E-1,-2.8134575E-1,-1.1087027E-2,-2.2664197E-1,2.8158603E-2,1.7268316E-1,-1.2715149E-1,-1.2251412E-1,9.140372E-2,1.4856617E-1,-6.84293E-2,-3.6613527E-1,5.5118587E-2],"categories":[],"categories_nodes":[],"categories_segments":[],"categories_sizes":[],"default_left":[0,0,0,0,0,0,0,0,0,0,0,0,0,0,0,0,0,0,0,0,0,0,0,0,0,0,0,0,0,0,0,0,0,0,0,0,0,0,0,0,0,0,0,0,0,0,0,0,0],"id":17,"left_children":[1,3,5,7,9,11,13,-1,-1,15,-1,-1,17,19,21,23,25,27,29,31,33,-1,-1,-1,-1,-1,35,37,39,41,43,-1,-1,45,47,-1,-1,-1,-1,-1,-1,-1,-1,-1,-1,-1,-1,-1,-1],"loss_changes":[3.5770917E0,5.911721E0,4.9048686E0,9.284601E-1,2.4193926E0,8.030342E0,7.168341E0,0E0,0E0,2.653594E0,0E0,0E0,4.8459578E0,7.014534E0,6.8733597E-1,2.7554996E0,1.1641576E0,5.2679024E0,7.245495E0,7.21251E-1,5.014683E0,0E0,0E0,0E0,0E0,0E0,1.1467922E0,2.4762049E0,4.9505596E0,7.935667E0,6.797188E0,0E0,0E0,1.8616853E0,5.668093E0,0E0,0E0,0E0,0E0,0E0,0E0,0E0,0E0,0E0,0E0,0E0,0E0,0E0,0E0],"parents":[2147483647,0,0,1,1,2,2,3,3,4,4,5,5,6,6,9,9,12,12,13,13,14,14,15,15,16,16,17,17,18,18,19,19,20,20,26,26,27,27,28,28,29,29,30,30,33,33,34,34],"right_children":[2,4,6,8,10,12,14,-1,-1,16,-1,-1,18,20,22,24,26,28,30,32,34,-1,-1,-1,-1,-1,36,38,40,42,44,-1,-1,46,48,-1,-1,-1,-1,-1,-1,-1,-1,-1,-1,-1,-1,-1,-1],"split_conditions":[3.988722E4,7.133653E4,4.788E3,3.5827324E4,6.17305E6,3.6222338E5,1.1650303E5,-3.7453914E-1,-6.926659E-2,2.4602814E4,-2.6522923E-1,-3.205397E-1,2.369127E6,1.87279E6,-5.447013E-2,5.326831E6,9.988901E-3,-3.15367E-2,1.2314653E-1,4.798433E-2,6.420841E6,2.501804E-2,2.9086378E-1,-2.6531506E-1,1.4732246E-1,-8.355357E-2,4.3733135E-2,1.551856E6,4.2813603E-2,1.825E-5,1.6366008E9,-6.2289305E-2,-3.9458323E-1,9.756097E-2,8.649755E6,-1.8728944E-2,2.1754193E-1,-2.8134575E-1,-1.1087027E-2,-2.2664197E-1,2.8158603E-2,1.7268316E-1,-1.2715149E-1,-1.2251412E-1,9.140372E-2,1.4856617E-1,-6.84293E-2,-3.6613527E-1,5.5118587E-2],"split_indices":[4,3,1,4,5,4,4,0,0,4,0,0,5,5,7,5,7,7,6,6,5,0,0,0,0,0,6,5,6,3,4,0,0,6,5,0,0,0,0,0,0,0,0,0,0,0,0,0,0],"split_type":[0,0,0,0,0,0,0,0,0,0,0,0,0,0,0,0,0,0,0,0,0,0,0,0,0,0,0,0,0,0,0,0,0,0,0,0,0,0,0,0,0,0,0,0,0,0,0,0,0],"sum_hessian":[5.990272E2,2.3867235E1,5.7516E2,7.2626786E0,1.6604557E1,5.167901E2,5.836988E1,5.617171E0,1.645508E0,1.4763962E1,1.8405945E0,6.2901773E0,5.1049994E2,4.535851E1,1.3011373E1,4.6581626E0,1.01058E1,3.5399487E2,1.5650505E2,3.7466843E0,4.1611824E1,1.152277E0,1.1859096E1,3.2164288E0,1.4417338E0,1.5139648E0,8.591834E0,1.1864534E1,3.4213034E2,9.29838E1,6.352125E1,1.2244811E0,2.5222032E0,3.0980444E1,1.0631382E1,2.2739427E0,6.3178916E0,6.6452312E0,5.219303E0,6.0138135E0,3.3611652E2,7.8861675E0,8.509763E1,1.7759722E1,4.576153E1,2.7503708E1,3.4767344E0,3.6394932E0,6.9918885E0],"tree_param":{"num_deleted":"0","num_feature":"8","num_nodes":"49","size_leaf_vector":"1"}},{"base_weights":[-1.1006527E-2,-2.7790216E-1,-4.643946E-3,-7.300352E-1,2.5868935E-3,-1.33828325E-2,-2.618064E-1,2.3129204E-1,-1.954127E-2,-1.1930444E0,5.449264E-1,-2.4821483E-1,1.5545916E-2,-5.342149E-1,-4.262111E-1,6.279021E-1,-3.9578772E-1,-4.7295976E-1,1.5942119E-2,3.6360317E-1,-3.711501E-2,-2.2611122E-1,1.2882079E-2,2.609029E-1,5.0698753E-2,1.3842177E-1,-2.1733175E-1,-2.895003E-1,1.6055068E-1,-1.0071229E-1,9.24701E-3],"categories":[],"categories_nodes":[],"categories_segments":[],"categories_sizes":[],"default_left":[0,0,0,0,0,0,0,0,0,0,0,0,0,0,0,0,0,0,0,0,0,0,0,0,0,0,0,0,0,0,0],"id":18,"left_children":[1,-1,3,5,7,-1,-1,9,11,13,15,17,19,21,-1,23,-1,-1,25,27,29,-1,-1,-1,-1,-1,-1,-1,-1,-1,-1],"loss_changes":[3.4031627E0,0E0,3.0548518E0,5.2312255E-1,2.926145E0,0E0,0E0,2.343587E1,4.23462E0,6.686621E-1,7.400711E0,2.4658352E1,8.409875E0,5.4503405E-1,0E0,4.4414864E0,0E0,0E0,1.9973978E1,1.4259906E1,8.100339E0,0E0,0E0,0E0,0E0,0E0,0E0,0E0,0E0,0E0,0E0],"parents":[2147483647,0,0,2,2,3,3,4,4,7,7,8,8,9,9,10,10,11,11,12,12,13,13,15,15,18,18,19,19,20,20],"right_children":[2,-1,4,6,8,-1,-1,10,12,14,16,18,20,22,-1,24,-1,-1,26,28,30,-1,-1,-1,-1,-1,-1,-1,-1,-1,-1],"split_conditions":[5.99E-6,-2.7790216E-1,1.10693E5,7.56E-6,1.405E-5,-1.33828325E-2,-2.618064E-1,1.7615023E12,4.002415E-5,5.172003E-2,2.275528E6,3.2799491E12,1.3934E-1,2.681461E-2,-4.262111E-1,8.4462985E-2,-3.9578772E-1,-4.7295976E-1,2.129E-5,9.049818E8,2.63E-1,-2.2611122E-1,1.2882079E-2,2.609029E-1,5.0698753E-2,1.3842177E-1,-2.1733175E-1,-2.895003E-1,1.6055068E-1,-1.0071229E-1,9.24701E-3],"split_indices":[0,0,5,2,1,0,0,4,1,6,5,4,3,7,0,6,0,0,0,4,2,0,0,0,0,0,0,0,0,0,0],"split_type":[0,0,0,0,0,0,0,0,0,0,0,0,0,0,0,0,0,0,0,0,0,0,0,0,0,0,0,0,0,0,0],"sum_hessian":[5.840843E2,3.0338683E0,5.810504E2,4.7482567E0,5.763022E2,1.0441208E0,3.704136E0,5.000669E1,5.262955E2,8.518213E0,4.148848E1,6.920324E1,4.5709222E2,3.0469916E0,5.4712214E0,4.0355453E1,1.1330241E0,1.0655205E1,5.854804E1,5.9293438E1,3.977988E2,1.9858779E0,1.0611137E0,2.5844303E1,1.4511151E1,3.678967E1,2.1758368E1,6.2521524E0,5.3041286E1,7.300347E1,3.2479532E2],"tree_param":{"num_deleted":"0","num_feature":"8","num_nodes":"31","size_leaf_vector":"1"}},{"base_weights":[-1.1040359E-2,-2.4557613E-1,1.3658038E-2,-1.4949533E-1,-3.168875E-1,-3.2690984E-1,3.1363286E-2,-2.593814E-1,1.0261844E0,-3.1448656E-1,-1.8314525E-1,2.4821108E-2,2.3657684E-1,-6.9612026E-2,-7.2684395E-1,4.5591727E-1,-3.2861882E-3,6.700461E-4,-3.1600618E-1,4.1938804E-2,-3.3032972E-1,-4.3605584E-1,1.5719467E-1,-8.627511E-2,-1.3386854E0,2.330193E-1,-1.2659265E-1,2.3378636E-1,1.457599E-2,-9.6069086E-1,-8.891646E-4,2.985762E-2,-3.0057955E-1,1.9855121E-1,-7.770459E-2,-2.4260585E-1,2.7157307E-1,-5.1030666E-1,-1.02495275E-1,-3.0588424E-1,2.7475994E-2,-9.53796E-2,1.3731435E-1,-5.3526657E-3,7.453346E-2,-8.623163E-1,2.3624547E-2,1.8991233E-1,-1.9562094E-1],"categories":[],"categories_nodes":[],"categories_segments":[],"categories_sizes":[],"default_left":[0,0,0,0,0,0,0,0,0,0,0,0,0,0,0,0,0,0,0,0,0,0,0,0,0,0,0,0,0,0,0,0,0,0,0,0,0,0,0,0,0,0,0,0,0,0,0,0,0],"id":19,"left_children":[1,3,5,7,-1,9,11,13,15,-1,17,19,-1,21,23,-1,-1,25,-1,27,29,31,33,35,37,-1,39,41,43,45,47,-1,-1,-1,-1,-1,-1,-1,-1,-1,-1,-1,-1,-1,-1,-1,-1,-1,-1],"loss_changes":[3.3227336E0,4.0988526E0,3.1420557E0,6.7286325E0,0E0,2.4789896E0,2.4307756E0,4.0784183E0,2.308559E0,0E0,3.6295953E0,3.0014064E0,0E0,2.911932E0,5.1102653E0,0E0,0E0,2.0468879E0,0E0,2.4623604E0,4.7151346E0,4.1440535E0,4.7643304E0,6.1634426E0,1.8576498E0,0E0,3.56343E0,7.381015E0,3.1291957E0,1.5729592E1,6.9828024E0,0E0,0E0,0E0,0E0,0E0,0E0,0E0,0E0,0E0,0E0,0E0,0E0,0E0,0E0,0E0,0E0,0E0,0E0],"parents":[2147483647,0,0,1,1,2,2,3,3,5,5,6,6,7,7,8,8,10,10,11,11,13,13,14,14,17,17,19,19,20,20,21,21,22,22,23,23,24,24,26,26,27,27,28,28,29,29,30,30],"right_children":[2,4,6,8,-1,10,12,14,16,-1,18,20,-1,22,24,-1,-1,26,-1,28,30,32,34,36,38,-1,40,42,44,46,48,-1,-1,-1,-1,-1,-1,-1,-1,-1,-1,-1,-1,-1,-1,-1,-1,-1,-1],"split_conditions":[3.98094E5,5.622E-1,4.2900375E4,5.262E-1,-3.168875E-1,2.476698E6,2.1201628E-1,9.302E-2,1.1415615E-2,-3.1448656E-1,6.17305E6,1.0911307E-1,2.3657684E-1,2.08209E5,7.010399E-2,4.5591727E-1,-3.2861882E-3,2.592095E6,-3.1600618E-1,7.2622E5,1.06143744E9,9.435305E-6,1.9243625E9,5.323E-1,3.50245E5,2.330193E-1,6.967423E4,6.4300396E-2,4.788E3,1.77777E3,2.8914363E9,2.985762E-2,-3.0057955E-1,1.9855121E-1,-7.770459E-2,-2.4260585E-1,2.7157307E-1,-5.1030666E-1,-1.02495275E-1,-3.0588424E-1,2.7475994E-2,-9.53796E-2,1.3731435E-1,-5.3526657E-3,7.453346E-2,-8.623163E-1,2.3624547E-2,1.8991233E-1,-1.9562094E-1],"split_indices":[5,0,4,2,0,5,7,0,7,0,5,7,0,5,6,0,0,5,0,5,4,0,4,3,5,0,1,6,1,2,4,0,0,0,0,0,0,0,0,0,0,0,0,0,0,0,0,0,0],"split_type":[0,0,0,0,0,0,0,0,0,0,0,0,0,0,0,0,0,0,0,0,0,0,0,0,0,0,0,0,0,0,0,0,0,0,0,0,0,0,0,0,0,0,0,0,0,0,0,0,0],"sum_hessian":[5.720322E2,5.3648033E1,5.183842E2,4.902259E1,4.625443E0,2.4754623E1,4.936296E2,4.5545055E1,3.4775357E0,3.0680635E0,2.168656E1,4.9042526E2,3.2043295E0,3.3211536E1,1.2333518E1,2.0409908E0,1.4365448E0,1.8729527E1,2.9570322E0,4.6871585E2,2.1709433E1,1.2344447E1,2.0867088E1,6.5827255E0,5.750792E0,1.9196905E0,1.6809837E1,5.7565525E1,4.111503E2,6.793817E0,1.4915616E1,6.76538E0,5.579067E0,9.164836E0,1.1702252E1,3.914821E0,2.6679046E0,3.7000566E0,2.0507357E0,2.579303E0,1.4230534E1,1.6497896E1,4.1067627E1,3.6190747E2,4.9242832E1,1.7699194E0,5.023897E0,7.572031E0,7.343585E0],"tree_param":{"num_deleted":"0","num_feature":"8","num_nodes":"49","size_leaf_vector":"1"}},{"base_weights":[-9.788958E-3,-2.4234979E-1,9.535803E-3,-7.968234E-1,-7.6397344E-2,-1.3514529E-2,4.209909E-1,-1.0306888E0,4.5443438E-2,7.334912E-1,-2.3576814E-1,-8.6309624E-1,-2.4994374E-3,7.704749E-1,-1.2502234E-1,3.9192084E-3,-3.8474044E-1,2.7323627E-1,2.3489857E-2,-8.391095E-1,-5.2346166E-2,-2.8860095E-1,-5.1925737E-2,-2.3070462E-1,3.8494202E-3,9.368278E-2,8.810083E-1,-4.0050885E-1,2.6491916E-1,-3.8128155E-1,-4.4506887E-1,5.893672E-1,-2.9176787E-1,-3.210273E-2,1.4343865E-1,-1.0608793E-1,1.7753871E-1,5.9341714E-2,9.3519455E-1,4.944784E-1,-2.2655988E-1,-2.8391436E-1,9.078646E-2,3.0836584E-2,2.413352E-1,4.4106912E-2,-2.6944414E-1,-3.4331077E-1,3.3751973E-3,-2.0083027E-2,1.5917024E-1,2.998091E-1,1.2840718E-1,4.187147E-2,2.5034422E-1],"categories":[],"categories_nodes":[],"categories_segments":[],"categories_sizes":[],"default_left":[0,0,0,0,0,0,0,0,0,0,0,0,0,0,0,0,0,0,0,0,0,0,0,0,0,0,0,0,0,0,0,0,0,0,0,0,0,0,0,0,0,0,0,0,0,0,0,0,0,0,0,0,0,0,0],"id":20,"left_children":[1,3,5,7,9,11,13,15,-1,17,19,21,23,25,27,-1,-1,-1,-1,29,31,-1,-1,-1,33,35,37,-1,39,41,-1,43,45,47,49,-1,-1,-1,51,53,-1,-1,-1,-1,-1,-1,-1,-1,-1,-1,-1,-1,-1,-1,-1],"loss_changes":[2.5424178E0,3.9326417E0,4.964004E0,2.349773E0,4.627075E0,4.639832E0,5.3945923E0,2.1355877E0,0E0,6.16066E-1,3.2308445E0,2.6658535E-1,2.3908904E0,1.1943674E0,5.8723726E0,0E0,0E0,0E0,0E0,1.4501958E0,3.8223212E0,0E0,0E0,0E0,2.4519E0,9.9252623E-1,3.537941E-1,0E0,2.6402931E0,2.3503232E0,0E0,6.2760115E-1,4.9139833E0,1.8751081E1,8.18469E0,0E0,0E0,0E0,2.3584366E-3,9.0996933E-1,0E0,0E0,0E0,0E0,0E0,0E0,0E0,0E0,0E0,0E0,0E0,0E0,0E0,0E0,0E0],"parents":[2147483647,0,0,1,1,2,2,3,3,4,4,5,5,6,6,7,7,9,9,10,10,11,11,12,12,13,13,14,14,19,19,20,20,24,24,25,25,26,26,28,28,29,29,31,31,32,32,33,33,34,34,38,38,39,39],"right_children":[2,4,6,8,10,12,14,16,-1,18,20,22,24,26,28,-1,-1,-1,-1,30,32,-1,-1,-1,34,36,38,-1,40,42,-1,44,46,48,50,-1,-1,-1,52,54,-1,-1,-1,-1,-1,-1,-1,-1,-1,-1,-1,-1,-1,-1,-1],"split_conditions":[5.7980355E4,2.304499E6,9.078629E3,5.330187E-2,2.52816E6,3.6222338E5,5.943727E4,3.8419712E-2,4.5443438E-2,6.4442824E4,6.993E4,3.5468735E3,3.923509E-2,-6.733911E-3,6.943643E4,3.9192084E-3,-3.8474044E-1,2.7323627E-1,2.3489857E-2,4.7366125E4,8.251629E4,-2.8860095E-1,-5.1925737E-2,-2.3070462E-1,1.63131E3,1.7114805E5,6.1786395E4,-4.0050885E-1,1.1949953E-1,3.5827324E4,-4.4506887E-1,5.326831E6,5.495509E6,1.6968707E8,8.1207406E5,-1.0608793E-1,1.7753871E-1,5.9341714E-2,1.0629244E-1,9.073115E-2,-2.2655988E-1,-2.8391436E-1,9.078646E-2,3.0836584E-2,2.413352E-1,4.4106912E-2,-2.6944414E-1,-3.4331077E-1,3.3751973E-3,-2.0083027E-2,1.5917024E-1,2.998091E-1,1.2840718E-1,4.187147E-2,2.5034422E-1],"split_indices":[4,5,0,7,5,4,2,6,0,0,3,3,6,7,0,0,0,0,0,4,3,0,0,0,2,4,4,0,6,4,0,5,5,4,4,0,0,0,6,6,0,0,0,0,0,0,0,0,0,0,0,0,0,0,0],"split_type":[0,0,0,0,0,0,0,0,0,0,0,0,0,0,0,0,0,0,0,0,0,0,0,0,0,0,0,0,0,0,0,0,0,0,0,0,0,0,0,0,0,0,0,0,0,0,0,0,0,0,0,0,0,0,0],"sum_hessian":[5.641987E2,4.2400127E1,5.2179865E2,8.8913145E0,3.3508816E1,4.9503326E2,2.6765352E1,7.062674E0,1.8286405E0,4.91737E0,2.8591446E1,5.346006E0,4.8968726E2,1.6069033E1,1.069632E1,1.5568508E0,5.505823E0,3.5630822E0,1.3542874E0,5.832265E0,2.275918E1,4.331008E0,1.0149981E0,3.0358326E0,4.8665143E2,2.5153267E0,1.3553706E1,2.0162215E0,8.680099E0,4.3404145E0,1.4918503E0,5.7869625E0,1.6972218E1,3.87594E2,9.905743E1,1.4780734E0,1.0372534E0,1.337715E0,1.2215991E1,7.5062304E0,1.1738676E0,2.1664844E0,2.1739302E0,2.2269292E0,3.5600336E0,1.0286323E1,6.685895E0,1.3587943E1,3.7400607E2,6.471542E1,3.4342007E1,9.9825E0,2.2334914E0,4.362742E0,3.143489E0],"tree_param":{"num_deleted":"0","num_feature":"8","num_nodes":"55","size_leaf_vector":"1"}},{"base_weights":[-8.172737E-3,-3.0276716E-2,1.8437263E-1,-3.12925E-1,9.985499E-3,4.5698845E-1,-5.459659E-1,-8.910001E-1,-7.113322E-2,-5.6440562E-2,2.0658909E-1,-1.8341817E-1,5.036314E-1,-8.730787E-1,3.3644986E-1,-4.7440526E-1,-3.8059506E-1,1.1951597E-1,-4.465233E-1,-1.0763441E0,-2.0720702E-2,6.554951E-1,4.3003764E-2,6.356578E-1,8.8826835E-2,-1.2331189E-1,-4.1887417E-1,-1.01654276E-1,6.015667E-1,-3.1443006E-1,1.5297514E-1,2.151482E-1,-3.3607268E-1,-5.313264E-1,-1.5415863E0,-5.425065E-1,1.6897675E-2,8.0854124E-1,-5.309705E-1,-1.6522872E0,1.5489079E-1,7.4950404E-2,7.3266906E-1,-9.0985966E-1,4.6067443E-1,-8.5419583E-1,6.237925E-1,2.238048E-1,2.5818309E-2,-2.4919544E-1,2.311561E-1,-2.3816358E-1,9.770823E-2,-4.1638976E-1,9.817612E-2,-5.264926E-1,-1.402291E-1,-2.3082602E-1,-2.6764717E-2,9.3078315E-3,-3.0945057E-1,5.513658E-2,3.0806243E-1,-6.1374503E-1,2.1249333E-1,-2.3137315E-1,-7.3144853E-1,1.1893003E-1,-4.0830314E-2,2.1975286E-1,-1.0611556E-1,2.4601164E-1,-1.4288215E-2,-3.4234846E-1,-7.319051E-2,-1.03911795E-2,2.450072E-1,-3.042029E-1,-7.340726E-2,2.7424514E-1,3.9953135E-2],"categories":[],"categories_nodes":[],"categories_segments":[],"categories_sizes":[],"default_left":[0,0,0,0,0,0,0,0,0,0,0,0,0,0,0,0,0,0,0,0,0,0,0,0,0,0,0,0,0,0,0,0,0,0,0,0,0,0,0,0,0,0,0,0,0,0,0,0,0,0,0,0,0,0,0,0,0,0,0,0,0,0,0,0,0,0,0,0,0,0,0,0,0,0,0,0,0,0,0,0,0],"id":21,"left_children":[1,3,5,7,9,11,13,15,17,19,21,-1,23,25,27,29,-1,31,-1,33,35,37,39,41,43,45,-1,-1,47,-1,49,51,-1,53,55,57,59,61,63,65,67,69,71,73,75,77,79,-1,-1,-1,-1,-1,-1,-1,-1,-1,-1,-1,-1,-1,-1,-1,-1,-1,-1,-1,-1,-1,-1,-1,-1,-1,-1,-1,-1,-1,-1,-1,-1,-1,-1],"loss_changes":[2.3711295E0,5.686721E0,1.167337E1,8.644974E0,5.7334895E0,2.4171057E0,4.926989E0,2.2752552E0,1.2341273E1,1.1936864E1,8.112853E0,0E0,2.1945667E0,4.530389E0,1.1102626E0,3.8649228E0,0E0,5.05506E0,0E0,1.9925213E0,6.254684E0,5.793091E0,1.5870947E1,1.6322527E0,4.5361834E0,3.8222768E0,0E0,0E0,2.3334992E-1,0E0,4.1564317E0,4.556907E0,0E0,5.3322177E0,4.3026066E-1,2.1352997E0,4.442426E0,3.4342136E0,8.918136E0,1.7078962E0,5.546177E0,1.8626484E0,1.8339558E0,2.3664832E-1,1.5699058E0,8.9607716E-2,3.8495576E-1,0E0,0E0,0E0,0E0,0E0,0E0,0E0,0E0,0E0,0E0,0E0,0E0,0E0,0E0,0E0,0E0,0E0,0E0,0E0,0E0,0E0,0E0,0E0,0E0,0E0,0E0,0E0,0E0,0E0,0E0,0E0,0E0,0E0,0E0],"parents":[2147483647,0,0,1,1,2,2,3,3,4,4,5,5,6,6,7,7,8,8,9,9,10,10,12,12,13,13,14,14,15,15,17,17,19,19,20,20,21,21,22,22,23,23,24,24,25,25,28,28,30,30,31,31,33,33,34,34,35,35,36,36,37,37,38,38,39,39,40,40,41,41,42,42,43,43,44,44,45,45,46,46],"right_children":[2,4,6,8,10,12,14,16,18,20,22,-1,24,26,28,30,-1,32,-1,34,36,38,40,42,44,46,-1,-1,48,-1,50,52,-1,54,56,58,60,62,64,66,68,70,72,74,76,78,80,-1,-1,-1,-1,-1,-1,-1,-1,-1,-1,-1,-1,-1,-1,-1,-1,-1,-1,-1,-1,-1,-1,-1,-1,-1,-1,-1,-1,-1,-1,-1,-1,-1,-1],"split_conditions":[4.7842266E12,6.365E-2,2.282E-5,2.079637E12,1.4293362E9,-3.7067227E-2,8.916873E6,4.50743E5,2.244489E6,1.1153E-1,1.2793E-1,-1.8341817E-1,1.796E-5,9.880083E-2,2.919276E-5,1.6000541E12,-3.8059506E-1,1.785E-5,-4.465233E-1,5.35641E5,-1.6264867E-2,1.5967998E-1,7.75293E5,1.57173E5,7.3423866E12,8.18358E12,-4.1887417E-1,-1.01654276E-1,6.4102566E-4,-3.1443006E-1,8.05E-6,-2.826956E-3,-3.3607268E-1,2.26723E5,9.955E-2,4.098893E3,1.9474803E-1,3.00657E5,1.2106013E-1,1.9243625E9,2.7059963E9,7.76E-6,3.614843E6,6.5545615E12,2.4122617E-5,2.192801E6,7.5412475E-2,2.238048E-1,2.5818309E-2,-2.4919544E-1,2.311561E-1,-2.3816358E-1,9.770823E-2,-4.1638976E-1,9.817612E-2,-5.264926E-1,-1.402291E-1,-2.3082602E-1,-2.6764717E-2,9.3078315E-3,-3.0945057E-1,5.513658E-2,3.0806243E-1,-6.1374503E-1,2.1249333E-1,-2.3137315E-1,-7.3144853E-1,1.1893003E-1,-4.0830314E-2,2.1975286E-1,-1.0611556E-1,2.4601164E-1,-1.4288215E-2,-3.4234846E-1,-7.319051E-2,-1.03911795E-2,2.450072E-1,-3.042029E-1,-7.340726E-2,2.7424514E-1,3.9953135E-2],"split_indices":[4,3,2,4,4,7,5,5,5,1,0,0,2,6,1,4,0,0,0,5,7,6,5,5,4,4,0,0,7,0,1,7,0,5,2,3,6,5,1,4,4,2,5,4,1,5,6,0,0,0,0,0,0,0,0,0,0,0,0,0,0,0,0,0,0,0,0,0,0,0,0,0,0,0,0,0,0,0,0,0,0],"split_type":[0,0,0,0,0,0,0,0,0,0,0,0,0,0,0,0,0,0,0,0,0,0,0,0,0,0,0,0,0,0,0,0,0,0,0,0,0,0,0,0,0,0,0,0,0,0,0,0,0,0,0,0,0,0,0,0,0,0,0,0,0,0,0,0,0,0,0,0,0,0,0,0,0,0,0,0,0,0,0,0,0],"sum_hessian":[5.548122E2,4.984352E2,5.637701E1,6.130319E1,4.3713202E2,4.132556E1,1.5051447E1,1.728744E1,4.4015747E1,3.2727066E2,1.0986136E2,1.2222104E0,4.010335E1,1.0988555E1,4.062892E0,9.292672E0,7.994767E0,3.9603977E1,4.411771E0,1.0088293E1,3.1718237E2,2.8538845E1,8.132252E1,3.0016958E1,1.0086394E1,5.024093E0,5.9644623E0,1.0669874E0,2.9959044E0,4.5037313E0,4.7889404E0,3.7535065E1,2.0689127E0,5.632282E0,4.4560113E0,2.0427086E1,2.9675528E2,2.5560272E1,2.9785743E0,4.1825066E0,7.714001E1,4.688853E0,2.5328106E1,2.344042E0,7.7423525E0,2.467158E0,2.556935E0,1.9908866E0,1.005018E0,1.7139201E0,3.0750203E0,3.0958369E0,3.4439228E1,2.510687E0,3.1215947E0,3.188729E0,1.2672824E0,1.3147932E1,7.2791533E0,2.9376685E2,2.9884505E0,7.0962934E0,1.8463978E1,1.0474304E0,1.9311439E0,2.905988E0,1.2765187E0,4.1953472E1,3.5186535E1,1.5706877E0,3.1181653E0,2.2731886E1,2.5962186E0,1.2100037E0,1.1340382E0,3.615272E0,4.1270804E0,1.4288487E0,1.0383092E0,1.063976E0,1.492959E0],"tree_param":{"num_deleted":"0","num_feature":"8","num_nodes":"81","size_leaf_vector":"1"}},{"base_weights":[-1.25638675E-2,-1.8829446E-2,6.783916E-1,-5.904134E-1,-1.0298656E-2,1.5900407E-2,2.4993375E-1,-3.1262553E-1,-1.309914E-1,-1.9822451E-1,1.2334536E-2,2.755389E-1,-2.5953025E-1,3.6343414E-2,-4.4211683E-1,8.983271E-2,-6.606538E-2,-1.990072E-1,4.3365026E-1,-8.42716E-1,-5.2559597E-4,-4.452831E-2,2.5902337E-1,-1.5002337E-1,1.550318E-1,-3.0663797E-1,3.125643E-2,-9.993798E-2,2.0952168E-1,-4.1064313E-1,-1.8296218E-1,1.5231782E-1,-2.5607964E-1,-2.3657216E-1,1.1761077E-2,2.5012827E-4,1.7061056E-1,-1.3682044E-2,-1.3682993E-1,-3.8863853E-1,6.0074728E-2],"categories":[],"categories_nodes":[],"categories_segments":[],"categories_sizes":[],"default_left":[0,0,0,0,0,0,0,0,0,0,0,0,0,0,0,0,0,0,0,0,0,0,0,0,0,0,0,0,0,0,0,0,0,0,0,0,0,0,0,0,0],"id":22,"left_children":[1,3,5,7,9,-1,-1,-1,11,13,15,-1,-1,17,19,21,23,25,27,29,31,33,35,37,39,-1,-1,-1,-1,-1,-1,-1,-1,-1,-1,-1,-1,-1,-1,-1,-1],"loss_changes":[2.338808E0,2.594957E0,4.2564917E-1,1.4875605E0,2.2422795E0,0E0,0E0,0E0,4.664928E0,3.2577581E0,2.8672938E0,0E0,0E0,2.87354E0,4.9272523E0,5.4049773E0,4.379669E0,4.9492655E0,2.5476093E0,9.5428085E-1,6.612084E0,8.322623E0,8.407922E0,5.4315424E0,4.527979E0,0E0,0E0,0E0,0E0,0E0,0E0,0E0,0E0,0E0,0E0,0E0,0E0,0E0,0E0,0E0,0E0],"parents":[2147483647,0,0,1,1,2,2,3,3,4,4,8,8,9,9,10,10,13,13,14,14,15,15,16,16,17,17,18,18,19,19,20,20,21,21,22,22,23,23,24,24],"right_children":[2,4,6,8,10,-1,-1,-1,12,14,16,-1,-1,18,20,22,24,26,28,30,32,34,36,38,40,-1,-1,-1,-1,-1,-1,-1,-1,-1,-1,-1,-1,-1,-1,-1,-1],"split_conditions":[4.776709E-1,-8.301966E-2,-1.1566976E-1,3.03062E-1,4.62126E5,1.5900407E-2,2.4993375E-1,-3.1262553E-1,3.9415E-1,8.862942E-2,1.930939E6,2.755389E-1,-2.5953025E-1,1.25E-5,5.323E-1,3.6241397E-1,1.2573214E-1,1.8542059E12,2.24101E5,2.68982E5,5.727E-1,9.752762E8,2.1268578E8,2.773236E8,1.2096209E-5,-3.0663797E-1,3.125643E-2,-9.993798E-2,2.0952168E-1,-4.1064313E-1,-1.8296218E-1,1.5231782E-1,-2.5607964E-1,-2.3657216E-1,1.1761077E-2,2.5012827E-4,1.7061056E-1,-1.3682044E-2,-1.3682993E-1,-3.8863853E-1,6.0074728E-2],"split_indices":[6,7,7,2,5,0,0,0,0,3,5,0,0,3,3,1,6,4,5,5,0,4,4,4,2,0,0,0,0,0,0,0,0,0,0,0,0,0,0,0,0],"split_type":[0,0,0,0,0,0,0,0,0,0,0,0,0,0,0,0,0,0,0,0,0,0,0,0,0,0,0,0,0,0,0,0,0,0,0,0,0,0,0,0,0],"sum_hessian":[5.362852E2,5.324299E2,3.8553212E0,6.8265204E0,5.2560333E2,1.0309055E0,2.8244157E0,2.8027751E0,4.023745E0,5.566367E1,4.6993967E2,1.5527986E0,2.4709466E0,2.8808016E1,2.6855656E1,2.362556E2,2.3368407E2,1.840478E1,1.0403236E1,1.3605115E1,1.325054E1,1.3209251E2,1.0416309E2,1.6960199E2,6.4082085E1,4.316122E0,1.4088658E1,2.6038363E0,7.7993994E0,2.6772666E0,1.0927849E1,8.557125E0,4.6934147E0,1.2510023E1,1.1958249E2,5.735061E1,4.6812485E1,1.2731728E2,4.2284702E1,1.101399E0,6.2980686E1],"tree_param":{"num_deleted":"0","num_feature":"8","num_nodes":"41","size_leaf_vector":"1"}},{"base_weights":[-1.1325873E-2,-3.1721026E-2,1.813411E-1,-2.0902725E-2,-9.2529184E-1,3.376429E-1,-7.192789E-1,-5.8453243E-2,1.9860639E-1,-4.3443716E-1,1.8345729E-1,6.460038E-1,2.4279593E-2,-1.0914265E0,1.0808369E-1,-1.4347631E-2,-4.5624068E-1,5.209469E-1,-9.203588E-3,8.433811E-1,3.094546E-1,-5.105299E-1,4.4377747E-1,-3.8367316E-1,-1.0379996E-1,-7.533753E-2,1.7919059E-1,-1.0035027E0,-1.3925399E-1,2.1125318E-1,3.084822E-1,-3.773524E-1,3.5936728E-1,3.1294725E-3,9.792342E-1,5.931484E-1,-9.75638E-2,-1.0094508E-1,-5.338306E-1,-2.9212904E-1,6.453986E-1,-3.7826142E-1,-1.3358989E-2,-1.0011565E-2,2.4100992E-1,-3.9634475E-1,1.24652736E-1,2.4190025E-1,-1.10679284E-1,-1.0276588E-1,